{"learner":{"attributes":{"scikit_learn":"{\"_estimator_type\": \"classifier\"}"},"feature_names":["length","small_letters","big_letters","numbers","special_chars","percent_small_letters","percent_big_letters","percent_numbers","percent_special_chars"],"feature_types":["int","int","int","int","int","float","float","float","float"],"gradient_booster":{"model":{"gbtree_model_param":{"num_parallel_tree":"1","num_trees":"300"},"iteration_indptr":[0,3,6,9,12,15,18,21,24,27,30,33,36,39,42,45,48,51,54,57,60,63,66,69,72,75,78,81,84,87,90,93,96,99,102,105,108,111,114,117,120,123,126,129,132,135,138,141,144,147,150,153,156,159,162,165,168,171,174,177,180,183,186,189,192,195,198,201,204,207,210,213,216,219,222,225,228,231,234,237,240,243,246,249,252,255,258,261,264,267,270,273,276,279,282,285,288,291,294,297,300],"tree_info":[0,1,2,0,1,2,0,1,2,0,1,2,0,1,2,0,1,2,0,1,2,0,1,2,0,1,2,0,1,2,0,1,2,0,1,2,0,1,2,0,1,2,0,1,2,0,1,2,0,1,2,0,1,2,0,1,2,0,1,2,0,1,2,0,1,2,0,1,2,0,1,2,0,1,2,0,1,2,0,1,2,0,1,2,0,1,2,0,1,2,0,1,2,0,1,2,0,1,2,0,1,2,0,1,2,0,1,2,0,1,2,0,1,2,0,1,2,0,1,2,0,1,2,0,1,2,0,1,2,0,1,2,0,1,2,0,1,2,0,1,2,0,1,2,0,1,2,0,1,2,0,1,2,0,1,2,0,1,2,0,1,2,0,1,2,0,1,2,0,1,2,0,1,2,0,1,2,0,1,2,0,1,2,0,1,2,0,1,2,0,1,2,0,1,2,0,1,2,0,1,2,0,1,2,0,1,2,0,1,2,0,1,2,0,1,2,0,1,2,0,1,2,0,1,2,0,1,2,0,1,2,0,1,2,0,1,2,0,1,2,0,1,2,0,1,2,0,1,2,0,1,2,0,1,2,0,1,2,0,1,2,0,1,2,0,1,2,0,1,2,0,1,2,0,1,2,0,1,2,0,1,2,0,1,2,0,1,2,0,1,2,0,1,2,0,1,2,0,1,2],"trees":[{"base_weights":[-4.4672602E-1,4.499875E-1,-2.2499906E-1],"categories":[],"categories_nodes":[],"categories_segments":[],"categories_sizes":[],"default_left":[0,0,0],"id":0,"left_children":[1,-1,-1],"loss_changes":[1.572735E5,0E0,0E0],"parents":[2147483647,0,0],"right_children":[2,-1,-1],"split_conditions":[8E0,4.499875E-1,-2.2499906E-1],"split_indices":[0,0,0],"split_type":[0,0,0],"sum_hessian":[2.6639422E5,3.5906664E4,2.3048755E5],"tree_param":{"num_deleted":"0","num_feature":"9","num_nodes":"3","size_leaf_vector":"1"}},{"base_weights":[9.284563E-1,-2.2499377E-1,1.1899347E0,4.4999775E-1,-7.494099E-1,-7.497246E-1,3.6734694E-1,-2.2499295E-1,3.512195E-1],"categories":[],"categories_nodes":[],"categories_segments":[],"categories_sizes":[],"default_left":[0,0,0,0,0,0,0,0,0],"id":1,"left_children":[1,-1,3,-1,5,7,-1,-1,-1],"loss_changes":[1.1691495E5,0E0,1.3859594E5,0E0,2.065625E1,1.6240234E1,0E0,0E0,0E0],"parents":[2147483647,0,0,2,2,4,4,5,5],"right_children":[2,-1,4,-1,6,8,-1,-1,-1],"split_conditions":[8E0,-2.2499377E-1,1.4E1,4.4999775E-1,1.8E1,1.7E1,3.6734694E-1,-2.2499295E-1,3.512195E-1],"split_indices":[0,0,0,0,1,3,0,0,0],"split_type":[0,0,0,0,0,0,0,0,0],"sum_hessian":[2.6639422E5,3.5906664E4,2.3048755E5,1.9871733E5,3.177022E4,3.1765775E4,4.444444E0,3.176222E4,3.5555553E0],"tree_param":{"num_deleted":"0","num_feature":"9","num_nodes":"9","size_leaf_vector":"1"}},{"base_weights":[-4.8173043E-1,-2.2499906E-1,1.4993862E0,1.4997009E0,-1.836735E-1,4.4998586E-1,-1.7560977E-1],"categories":[],"categories_nodes":[],"categories_segments":[],"categories_sizes":[],"default_left":[0,0,0,0,0,0,0],"id":2,"left_children":[1,-1,3,5,-1,-1,-1],"loss_changes":[1.4158144E5,0E0,2.203125E1,1.7554688E1,0E0,0E0,0E0],"parents":[2147483647,0,0,2,2,3,3],"right_children":[2,-1,4,6,-1,-1,-1],"split_conditions":[1.4E1,-2.2499906E-1,1.8E1,1.7E1,-1.836735E-1,4.4998586E-1,-1.7560977E-1],"split_indices":[0,0,1,3,0,0,0],"split_type":[0,0,0,0,0,0,0],"sum_hessian":[2.6639422E5,2.3462398E5,3.177022E4,3.1765775E4,4.444444E0,3.176222E4,3.5555553E0],"tree_param":{"num_deleted":"0","num_feature":"9","num_nodes":"7","size_leaf_vector":"1"}},{"base_weights":[-3.815665E-1,3.0274191E-1,-2.0060593E-1],"categories":[],"categories_nodes":[],"categories_segments":[],"categories_sizes":[],"default_left":[0,0,0],"id":3,"left_children":[1,-1,-1],"loss_changes":[9.425049E4,0E0,0E0],"parents":[2147483647,0,0],"right_children":[2,-1,-1],"split_conditions":[8E0,3.0274191E-1,-2.0060593E-1],"split_indices":[0,0,0],"split_type":[0,0,0],"sum_hessian":[2.3603698E5,4.0391668E4,1.9564531E5],"tree_param":{"num_deleted":"0","num_feature":"9","num_nodes":"3","size_leaf_vector":"1"}},{"base_weights":[6.6616917E-1,-2.0060088E-1,8.285785E-1,3.0274606E-1,-6.6808933E-1,-6.684094E-1,2.6600942E-1,-2.006001E-1,2.5803897E-1],"categories":[],"categories_nodes":[],"categories_segments":[],"categories_sizes":[],"default_left":[0,0,0,0,0,0,0,0,0],"id":4,"left_children":[1,-1,3,-1,5,7,-1,-1,-1],"loss_changes":[6.0916117E4,0E0,6.770361E4,0E0,1.4016602E1,1.1189453E1,0E0,0E0,0E0],"parents":[2147483647,0,0,2,2,4,4,5,5],"right_children":[2,-1,4,-1,6,8,-1,-1,-1],"split_conditions":[8E0,-2.0060088E-1,1.4E1,3.0274606E-1,1.8E1,1.7E1,2.6600942E-1,-2.006001E-1,2.5803897E-1],"split_indices":[0,0,0,0,1,3,0,0,0],"split_type":[0,0,0,0,0,0,0,0,0],"sum_hessian":[2.809874E5,3.047889E4,2.505085E5,2.2353858E5,2.6969922E4,2.696494E4,4.981539E0,2.696096E4,3.9799237E0],"tree_param":{"num_deleted":"0","num_feature":"9","num_nodes":"9","size_leaf_vector":"1"}},{"base_weights":[-4.1346997E-1,-2.0060587E-1,1.0087988E0,1.008986E0,-1.6410351E-1,3.0274123E-1,-1.573128E-1],"categories":[],"categories_nodes":[],"categories_segments":[],"categories_sizes":[],"default_left":[0,0,0,0,0,0,0],"id":5,"left_children":[1,-1,3,5,-1,-1,-1],"loss_changes":[8.526392E4,0E0,1.0964844E1,8.8203125E0,0E0,0E0,0E0],"parents":[2147483647,0,0,2,2,3,3],"right_children":[2,-1,4,6,-1,-1,-1],"split_conditions":[1.4E1,-2.0060587E-1,1.8E1,1.7E1,-1.6410351E-1,3.0274123E-1,-1.573128E-1],"split_indices":[0,0,1,3,0,0,0],"split_type":[0,0,0,0,0,0,0],"sum_hessian":[2.34893E5,1.9915631E5,3.5736684E4,3.5732734E4,3.9481525E0,3.572955E4,3.185104E0],"tree_param":{"num_deleted":"0","num_feature":"9","num_nodes":"7","size_leaf_vector":"1"}},{"base_weights":[-3.434068E-1,2.423314E-1,-1.8530138E-1],"categories":[],"categories_nodes":[],"categories_segments":[],"categories_sizes":[],"default_left":[0,0,0],"id":6,"left_children":[1,-1,-1],"loss_changes":[6.253428E4,0E0,0E0],"parents":[2147483647,0,0],"right_children":[2,-1,-1],"split_conditions":[8E0,2.423314E-1,-1.8530138E-1],"split_indices":[0,0,0],"split_type":[0,0,0],"sum_hessian":[1.980617E5,3.810799E4,1.5995372E5],"tree_param":{"num_deleted":"0","num_feature":"9","num_nodes":"3","size_leaf_vector":"1"}},{"base_weights":[5.481907E-1,-1.8529572E-1,6.729033E-1,2.4233486E-1,-6.170585E-1,-6.173849E-1,2.142547E-1,-1.8529485E-1,2.0849673E-1],"categories":[],"categories_nodes":[],"categories_segments":[],"categories_sizes":[],"default_left":[0,0,0,0,0,0,0,0,0],"id":7,"left_children":[1,-1,3,-1,5,7,-1,-1,-1],"loss_changes":[3.749354E4,0E0,4.05316E4,0E0,1.00234375E1,8.084961E0,0E0,0E0,0E0],"parents":[2147483647,0,0,2,2,4,4,5,5],"right_children":[2,-1,4,-1,6,8,-1,-1,-1],"split_conditions":[8E0,-1.8529572E-1,1.4E1,2.4233486E-1,1.8E1,1.7E1,2.142547E-1,-1.8529485E-1,2.0849673E-1],"split_indices":[0,0,0,0,1,3,0,0,0],"split_type":[0,0,0,0,0,0,0,0,0],"sum_hessian":[2.5786927E5,2.491877E4,2.329505E5,2.1089908E5,2.205141E4,2.2046541E4,4.8693604E0,2.2042627E4,3.9146216E0],"tree_param":{"num_deleted":"0","num_feature":"9","num_nodes":"9","size_leaf_vector":"1"}},{"base_weights":[-3.7318462E-1,-1.8530129E-1,8.075038E-1,8.0764997E-1,-1.4823768E-1,2.4233085E-1,-1.4198433E-1],"categories":[],"categories_nodes":[],"categories_segments":[],"categories_sizes":[],"default_left":[0,0,0,0,0,0,0],"id":8,"left_children":[1,-1,3,5,-1,-1,-1],"loss_changes":[5.6734383E4,0E0,6.8164062E0,5.5429688E0,0E0,0E0,0E0],"parents":[2147483647,0,0,2,2,3,3],"right_children":[2,-1,4,6,-1,-1,-1],"split_conditions":[1.4E1,-1.8530129E-1,1.8E1,1.7E1,-1.4823768E-1,2.4233085E-1,-1.4198433E-1],"split_indices":[0,0,1,3,0,0,0],"split_type":[0,0,0,0,0,0,0],"sum_hessian":[1.9653973E5,1.6282406E5,3.3715668E4,3.371226E4,3.406603E0,3.3709484E4,2.7755353E0],"tree_param":{"num_deleted":"0","num_feature":"9","num_nodes":"7","size_leaf_vector":"1"}},{"base_weights":[-3.1897226E-1,2.1020274E-1,-1.7507079E-1],"categories":[],"categories_nodes":[],"categories_segments":[],"categories_sizes":[],"default_left":[0,0,0],"id":9,"left_children":[1,-1,-1],"loss_changes":[4.324614E4,0E0,0E0],"parents":[2147483647,0,0],"right_children":[2,-1,-1],"split_conditions":[8E0,2.1020274E-1,-1.7507079E-1],"split_indices":[0,0,0],"split_type":[0,0,0],"sum_hessian":[1.6028958E5,3.3024625E4,1.2726496E5],"tree_param":{"num_deleted":"0","num_feature":"9","num_nodes":"3","size_leaf_vector":"1"}},{"base_weights":[4.8270977E-1,-1.7506397E-1,5.882481E-1,2.1020639E-1,-5.829335E-1,-5.832689E-1,1.8272647E-1,-1.7506294E-1,1.7762326E-1],"categories":[],"categories_nodes":[],"categories_segments":[],"categories_sizes":[],"default_left":[0,0,0,0,0,0,0,0,0],"id":10,"left_children":[1,-1,3,-1,5,7,-1,-1,-1],"loss_changes":[2.4772754E4,0E0,2.637904E4,0E0,7.370117E0,6E0,0E0,0E0,0E0],"parents":[2147483647,0,0,2,2,4,4,5,5],"right_children":[2,-1,4,-1,6,8,-1,-1,-1],"split_conditions":[8E0,-1.7506397E-1,1.4E1,2.1020639E-1,1.8E1,1.7E1,1.8272647E-1,-1.7506294E-1,1.7762326E-1],"split_indices":[0,0,0,0,1,3,0,0,0],"split_type":[0,0,0,0,0,0,0,0,0],"sum_hessian":[2.201378E5,1.9826418E4,2.0031139E5,1.8276531E5,1.7546074E4,1.754165E4,4.424868E0,1.753806E4,3.588203E0],"tree_param":{"num_deleted":"0","num_feature":"9","num_nodes":"9","size_leaf_vector":"1"}},{"base_weights":[-3.472678E-1,-1.7507072E-1,7.0043826E-1,7.005672E-1,-1.3494943E-1,2.1020216E-1,-1.2893313E-1],"categories":[],"categories_nodes":[],"categories_segments":[],"categories_sizes":[],"default_left":[0,0,0,0,0,0,0],"id":11,"left_children":[1,-1,3,5,-1,-1,-1],"loss_changes":[3.930721E4,0E0,4.6484375E0,3.8222656E0,0E0,0E0,0E0],"parents":[2147483647,0,0,2,2,3,3],"right_children":[2,-1,4,6,-1,-1,-1],"split_conditions":[1.4E1,-1.7507072E-1,1.8E1,1.7E1,-1.3494943E-1,2.1020216E-1,-1.2893313E-1],"split_indices":[0,0,1,3,0,0,0],"split_type":[0,0,0,0,0,0,0],"sum_hessian":[1.5876672E5,1.2954858E5,2.9218145E4,2.9215262E4,2.8834872E0,2.9212887E4,2.3750212E0],"tree_param":{"num_deleted":"0","num_feature":"9","num_nodes":"7","size_leaf_vector":"1"}},{"base_weights":[-3.025994E-1,1.9095126E-1,-1.6801697E-1],"categories":[],"categories_nodes":[],"categories_segments":[],"categories_sizes":[],"default_left":[0,0,0],"id":12,"left_children":[1,-1,-1],"loss_changes":[3.0591816E4,0E0,0E0],"parents":[2147483647,0,0],"right_children":[2,-1,-1],"split_conditions":[8E0,1.9095126E-1,-1.6801697E-1],"split_indices":[0,0,0],"split_type":[0,0,0],"sum_hessian":[1.2652557E5,2.7223469E4,9.93021E4],"tree_param":{"num_deleted":"0","num_feature":"9","num_nodes":"3","size_leaf_vector":"1"}},{"base_weights":[4.4251585E-1,-1.6800842E-1,5.368875E-1,1.9095564E-1,-5.5938864E-1,-5.5973655E-1,1.6108236E-1,-1.6800709E-1,1.5610576E-1],"categories":[],"categories_nodes":[],"categories_segments":[],"categories_sizes":[],"default_left":[0,0,0,0,0,0,0,0,0],"id":13,"left_children":[1,-1,3,-1,5,7,-1,-1,-1],"loss_changes":[1.7013605E4,0E0,1.795143E4,0E0,5.522949E0,4.536133E0,0E0,0E0,0E0],"parents":[2147483647,0,0,2,2,4,4,5,5],"right_children":[2,-1,4,-1,6,8,-1,-1,-1],"split_conditions":[8E0,-1.6800842E-1,1.4E1,1.9095564E-1,1.8E1,1.7E1,1.6108236E-1,-1.6800709E-1,1.5610576E-1],"split_indices":[0,0,0,0,1,3,0,0,0],"split_type":[0,0,0,0,0,0,0,0,0],"sum_hessian":[1.7982127E5,1.5470263E4,1.64351E5,1.5065928E5,1.3691725E4,1.368787E4,3.854107E0,1.3684714E4,3.1559548E0],"tree_param":{"num_deleted":"0","num_feature":"9","num_nodes":"9","size_leaf_vector":"1"}},{"base_weights":[-3.2984853E-1,-1.6801691E-1,6.362776E-1,6.363997E-1,-1.23382725E-1,1.9095054E-1,-1.175106E-1],"categories":[],"categories_nodes":[],"categories_segments":[],"categories_sizes":[],"default_left":[0,0,0,0,0,0,0],"id":14,"left_children":[1,-1,3,5,-1,-1,-1],"loss_changes":[2.7839512E4,0E0,3.3417969E0,2.7773438E0,0E0,0E0,0E0],"parents":[2147483647,0,0,2,2,3,3],"right_children":[2,-1,4,6,-1,-1,-1],"split_conditions":[1.4E1,-1.6801691E-1,1.8E1,1.7E1,-1.23382725E-1,1.9095054E-1,-1.175106E-1],"split_indices":[0,0,1,3,0,0,0],"split_type":[0,0,0,0,0,0,0],"sum_hessian":[1.2516959E5,1.0108384E5,2.4085756E4,2.4083342E4,2.4137404E0,2.4081332E4,2.0111666E0],"tree_param":{"num_deleted":"0","num_feature":"9","num_nodes":"7","size_leaf_vector":"1"}},{"base_weights":[-2.913057E-1,1.7859702E-1,-1.6305506E-1],"categories":[],"categories_nodes":[],"categories_segments":[],"categories_sizes":[],"default_left":[0,0,0],"id":15,"left_children":[1,-1,-1],"loss_changes":[2.1946105E4,0E0,0E0],"parents":[2147483647,0,0],"right_children":[2,-1,-1],"split_conditions":[8E0,1.7859702E-1,-1.6305506E-1],"split_indices":[0,0,0],"split_type":[0,0,0],"sum_hessian":[9.8138695E4,2.173381E4,7.640489E4],"tree_param":{"num_deleted":"0","num_feature":"9","num_nodes":"3","size_leaf_vector":"1"}},{"base_weights":[4.1633317E-1,-1.630441E-1,5.036743E-1,1.7860258E-1,-5.4280627E-1,-5.4317087E-1,1.4477378E-1,-1.6304241E-1,1.3974251E-1],"categories":[],"categories_nodes":[],"categories_segments":[],"categories_sizes":[],"default_left":[0,0,0,0,0,0,0,0,0],"id":16,"left_children":[1,-1,3,-1,5,7,-1,-1,-1],"loss_changes":[1.1964428E4,0E0,1.2549078E4,0E0,4.201172E0,3.4821777E0,0E0,0E0,0E0],"parents":[2147483647,0,0,2,2,4,4,5,5],"right_children":[2,-1,4,-1,6,8,-1,-1,-1],"split_conditions":[8E0,-1.630441E-1,1.4E1,1.7860258E-1,1.8E1,1.7E1,1.4477378E-1,-1.6304241E-1,1.3974251E-1],"split_indices":[0,0,0,0,1,3,0,0,0],"split_type":[0,0,0,0,0,0,0,0,0],"sum_hessian":[1.4271612E5,1.1903242E4,1.3081289E5,1.20277484E5,1.05354E4,1.0532126E4,3.2746239E0,1.0529417E4,2.709306E0],"tree_param":{"num_deleted":"0","num_feature":"9","num_nodes":"9","size_leaf_vector":"1"}},{"base_weights":[-3.1780818E-1,-1.6305502E-1,5.950965E-1,5.9521776E-1,-1.1299465E-1,1.7859612E-1,-1.0728059E-1],"categories":[],"categories_nodes":[],"categories_segments":[],"categories_sizes":[],"default_left":[0,0,0,0,0,0,0],"id":17,"left_children":[1,-1,3,5,-1,-1,-1],"loss_changes":[1.9988385E4,0E0,2.4892578E0,2.0927734E0,0E0,0E0,0E0],"parents":[2147483647,0,0,2,2,3,3],"right_children":[2,-1,4,6,-1,-1,-1],"split_conditions":[1.4E1,-1.6305502E-1,1.8E1,1.7E1,-1.1299465E-1,1.7859612E-1,-1.0728059E-1],"split_indices":[0,0,1,3,0,0,0],"split_type":[0,0,0,0,0,0,0],"sum_hessian":[9.700471E4,7.777569E4,1.9229021E4,1.9227012E4,2.0108736E0,1.9225316E4,1.6956059E0],"tree_param":{"num_deleted":"0","num_feature":"9","num_nodes":"7","size_leaf_vector":"1"}},{"base_weights":[-2.8335866E-1,1.7031683E-1,-1.5951543E-1],"categories":[],"categories_nodes":[],"categories_segments":[],"categories_sizes":[],"default_left":[0,0,0],"id":18,"left_children":[1,-1,-1],"loss_changes":[1.5890857E4,0E0,0E0],"parents":[2147483647,0,0],"right_children":[2,-1,-1],"split_conditions":[8E0,1.7031683E-1,-1.5951543E-1],"split_indices":[0,0,0],"split_type":[0,0,0],"sum_hessian":[7.517641E4,1.6981766E4,5.819464E4],"tree_param":{"num_deleted":"0","num_feature":"9","num_nodes":"3","size_leaf_vector":"1"}},{"base_weights":[3.986117E-1,-1.5950112E-1,4.8130274E-1,1.7032397E-1,-5.309517E-1,-5.313379E-1,1.3153616E-1,-1.5949893E-1,1.2641951E-1],"categories":[],"categories_nodes":[],"categories_segments":[],"categories_sizes":[],"default_left":[0,0,0,0,0,0,0,0,0],"id":19,"left_children":[1,-1,3,-1,5,7,-1,-1,-1],"loss_changes":[8.544453E3,0E0,8.925967E3,0E0,3.237793E0,2.7097168E0,0E0,0E0,0E0],"parents":[2147483647,0,0,2,2,4,4,5,5],"right_children":[2,-1,4,-1,6,8,-1,-1,-1],"split_conditions":[8E0,-1.5950112E-1,1.4E1,1.7032397E-1,1.8E1,1.7E1,1.3153616E-1,-1.5949893E-1,1.2641951E-1],"split_indices":[0,0,0,0,1,3,0,0,0],"split_type":[0,0,0,0,0,0,0,0,0],"sum_hessian":[1.1106933E5,9.066371E3,1.0200295E5,9.397793E4,8.025025E3,8.0222803E3,2.7444646E0,8.0199854E3,2.2950594E0],"tree_param":{"num_deleted":"0","num_feature":"9","num_nodes":"9","size_leaf_vector":"1"}},{"base_weights":[-3.093238E-1,-1.5951538E-1,5.6748736E-1,5.6761205E-1,-1.0348287E-1,1.7031568E-1,-9.799116E-2],"categories":[],"categories_nodes":[],"categories_segments":[],"categories_sizes":[],"default_left":[0,0,0,0,0,0,0],"id":20,"left_children":[1,-1,3,5,-1,-1,-1],"loss_changes":[1.4481704E4,0E0,1.9052734E0,1.6210938E0,0E0,0E0,0E0],"parents":[2147483647,0,0,2,2,3,3],"right_children":[2,-1,4,6,-1,-1,-1],"split_conditions":[1.4E1,-1.5951538E-1,1.8E1,1.7E1,-1.0348287E-1,1.7031568E-1,-9.799116E-2],"split_indices":[0,0,1,3,0,0,0],"split_type":[0,0,0,0,0,0,0],"sum_hessian":[7.42635E4,5.923863E4,1.5024874E4,1.5023199E4,1.6753687E0,1.502177E4,1.4299066E0],"tree_param":{"num_deleted":"0","num_feature":"9","num_nodes":"7","size_leaf_vector":"1"}},{"base_weights":[-2.7768707E-1,1.6460344E-1,-1.5696463E-1],"categories":[],"categories_nodes":[],"categories_segments":[],"categories_sizes":[],"default_left":[0,0,0],"id":21,"left_children":[1,-1,-1],"loss_changes":[1.1580179E4,0E0,0E0],"parents":[2147483647,0,0],"right_children":[2,-1,-1],"split_conditions":[8E0,1.6460344E-1,-1.5696463E-1],"split_indices":[0,0,0],"split_type":[0,0,0],"sum_hessian":[5.707202E4,1.3072656E4,4.3999363E4],"tree_param":{"num_deleted":"0","num_feature":"9","num_nodes":"3","size_leaf_vector":"1"}},{"base_weights":[3.8630274E-1,-1.5694582E-1,4.6581545E-1,1.6461277E-1,-5.223773E-1,-5.2279115E-1,1.2017023E-1,-1.5694293E-1,1.15013145E-1],"categories":[],"categories_nodes":[],"categories_segments":[],"categories_sizes":[],"default_left":[0,0,0,0,0,0,0,0,0],"id":22,"left_children":[1,-1,3,-1,5,7,-1,-1,-1],"loss_changes":[6.1662236E3,0E0,6.423459E3,0E0,2.5272217E0,2.135498E0,0E0,0E0,0E0],"parents":[2147483647,0,0,2,2,4,4,5,5],"right_children":[2,-1,4,-1,6,8,-1,-1,-1],"split_conditions":[8E0,-1.5694582E-1,1.4E1,1.6461277E-1,1.8E1,1.7E1,1.2017023E-1,-1.5694293E-1,1.15013145E-1],"split_indices":[0,0,0,0,1,3,0,0,0],"split_type":[0,0,0,0,0,0,0,0,0],"sum_hessian":[8.5266625E4,6.85496E3,7.8411664E4,7.2343625E4,6.06804E3,6.0657544E3,2.2860453E0,6.063822E3,1.9325455E0],"tree_param":{"num_deleted":"0","num_feature":"9","num_nodes":"9","size_leaf_vector":"1"}},{"base_weights":[-3.0326262E-1,-1.569646E-1,5.484267E-1,5.4855865E-1,-9.4705656E-2,1.6460194E-1,-8.9514256E-2],"categories":[],"categories_nodes":[],"categories_segments":[],"categories_sizes":[],"default_left":[0,0,0,0,0,0,0],"id":23,"left_children":[1,-1,3,5,-1,-1,-1],"loss_changes":[1.0557547E4,0E0,1.4924316E0,1.284668E0,0E0,0E0,0E0],"parents":[2147483647,0,0,2,2,3,3],"right_children":[2,-1,4,6,-1,-1,-1],"split_conditions":[1.4E1,-1.569646E-1,1.8E1,1.7E1,-9.4705656E-2,1.6460194E-1,-8.9514256E-2],"split_indices":[0,0,1,3,0,0,0],"split_type":[0,0,0,0,0,0,0],"sum_hessian":[5.635508E4,4.47886E4,1.1566477E4,1.1565075E4,1.4010452E0,1.1563865E4,1.2102674E0],"tree_param":{"num_deleted":"0","num_feature":"9","num_nodes":"7","size_leaf_vector":"1"}},{"base_weights":[-2.7359754E-1,1.6058075E-1,-1.5511267E-1],"categories":[],"categories_nodes":[],"categories_segments":[],"categories_sizes":[],"default_left":[0,0,0],"id":24,"left_children":[1,-1,-1],"loss_changes":[8.476958E3,0E0,0E0],"parents":[2147483647,0,0],"right_children":[2,-1,-1],"split_conditions":[8E0,1.6058075E-1,-1.5511267E-1],"split_indices":[0,0,0],"split_type":[0,0,0],"sum_hessian":[4.3046566E4,9.958236E3,3.308833E4],"tree_param":{"num_deleted":"0","num_feature":"9","num_nodes":"3","size_leaf_vector":"1"}},{"base_weights":[3.775973E-1,-1.5508778E-1,4.5488814E-1,1.6059305E-1,-5.1611257E-1,-5.165611E-1,1.1003406E-1,-1.5508395E-1,1.04918234E-1],"categories":[],"categories_nodes":[],"categories_segments":[],"categories_sizes":[],"default_left":[0,0,0,0,0,0,0,0,0],"id":25,"left_children":[1,-1,3,-1,5,7,-1,-1,-1],"loss_changes":[4.4824727E3,0E0,4.6600713E3,0E0,1.9970703E0,1.7043457E0,0E0,0E0,0E0],"parents":[2147483647,0,0,2,2,4,4,5,5],"right_children":[2,-1,4,-1,6,8,-1,-1,-1],"split_conditions":[8E0,-1.5508778E-1,1.4E1,1.6059305E-1,1.8E1,1.7E1,1.1003406E-1,-1.5508395E-1,1.04918234E-1],"split_indices":[0,0,0,0,1,3,0,0,0],"split_type":[0,0,0,0,0,0,0,0,0],"sum_hessian":[6.482644E4,5.1551826E3,5.9671258E4,5.5107492E4,4.5637656E3,4.5618633E3,1.9024837E0,4.5602373E3,1.6258073E0],"tree_param":{"num_deleted":"0","num_feature":"9","num_nodes":"9","size_leaf_vector":"1"}},{"base_weights":[-2.9888913E-1,-1.5511267E-1,5.349942E-1,5.351372E-1,-8.66138E-2,1.6057879E-1,-8.17906E-2],"categories":[],"categories_nodes":[],"categories_segments":[],"categories_sizes":[],"default_left":[0,0,0,0,0,0,0],"id":26,"left_children":[1,-1,3,5,-1,-1,-1],"loss_changes":[7.7305244E3,0E0,1.1921387E0,1.0390625E0,0E0,0E0,0E0],"parents":[2147483647,0,0,2,2,3,3],"right_children":[2,-1,4,6,-1,-1,-1],"split_conditions":[1.4E1,-1.5511267E-1,1.8E1,1.7E1,-8.66138E-2,1.6057879E-1,-8.17906E-2],"split_indices":[0,0,1,3,0,0,0],"split_type":[0,0,0,0,0,0,0],"sum_hessian":[4.2492914E4,3.368177E4,8.811144E3,8.809965E3,1.1791111E0,8.808934E3,1.0306088E0],"tree_param":{"num_deleted":"0","num_feature":"9","num_nodes":"7","size_leaf_vector":"1"}},{"base_weights":[-2.7062592E-1,1.5770727E-1,-1.5376057E-1],"categories":[],"categories_nodes":[],"categories_segments":[],"categories_sizes":[],"default_left":[0,0,0],"id":27,"left_children":[1,-1,-1],"loss_changes":[6.2253706E3,0E0,0E0],"parents":[2147483647,0,0],"right_children":[2,-1,-1],"split_conditions":[8E0,1.5770727E-1,-1.5376057E-1],"split_indices":[0,0,0],"split_type":[0,0,0],"sum_hessian":[3.2314281E4,7.5290356E3,2.4785246E4],"tree_param":{"num_deleted":"0","num_feature":"9","num_nodes":"3","size_leaf_vector":"1"}},{"base_weights":[3.7136033E-1,-1.5372746E-1,4.4707328E-1,1.5772358E-1,-5.114888E-1,-5.119807E-1,1.00796334E-1,-1.5372236E-1,9.5814526E-2],"categories":[],"categories_nodes":[],"categories_segments":[],"categories_sizes":[],"default_left":[0,0,0,0,0,0,0,0,0],"id":28,"left_children":[1,-1,3,-1,5,7,-1,-1,-1],"loss_changes":[3.275349E3,0E0,3.4001074E3,0E0,1.5977173E0,1.3774414E0,0E0,0E0,0E0],"parents":[2147483647,0,0,2,2,4,4,5,5],"right_children":[2,-1,4,-1,6,8,-1,-1,-1],"split_conditions":[8E0,-1.5372746E-1,1.4E1,1.5772358E-1,1.8E1,1.7E1,1.00796334E-1,-1.5372236E-1,9.5814526E-2],"split_indices":[0,0,0,0,1,3,0,0,0],"split_type":[0,0,0,0,0,0,0,0,0],"sum_hessian":[4.8944242E4,3.8616824E3,4.5082562E4,4.1663566E4,3.418996E3,3.4174084E3,1.587672E0,3.416037E3,1.3713106E0],"tree_param":{"num_deleted":"0","num_feature":"9","num_nodes":"9","size_leaf_vector":"1"}},{"base_weights":[-2.9570985E-1,-1.5376061E-1,5.253838E-1,5.2554196E-1,-7.9199135E-2,1.5770468E-1,-2.1581054E-2],"categories":[],"categories_nodes":[],"categories_segments":[],"categories_sizes":[],"default_left":[0,0,0,0,0,0,0],"id":29,"left_children":[1,-1,3,5,-1,-1,-1],"loss_changes":[5.678254E3,0E0,9.707031E-1,5.963135E-1,0E0,0E0,0E0],"parents":[2147483647,0,0,2,2,3,3],"right_children":[2,-1,4,6,-1,-1,-1],"split_conditions":[1.4E1,-1.5376061E-1,1.8E1,1.6E1,-7.9199135E-2,1.5770468E-1,-2.1581054E-2],"split_indices":[0,0,1,3,0,0,0],"split_type":[0,0,0,0,0,0,0],"sum_hessian":[3.1891697E4,2.5229691E4,6.6620063E3,6.661006E3,1.0004413E0,6.6595625E3,1.4435288E0],"tree_param":{"num_deleted":"0","num_feature":"9","num_nodes":"7","size_leaf_vector":"1"}},{"base_weights":[-2.684539E-1,1.5563253E-1,-1.5276909E-1],"categories":[],"categories_nodes":[],"categories_segments":[],"categories_sizes":[],"default_left":[0,0,0],"id":30,"left_children":[1,-1,-1],"loss_changes":[4.582501E3,0E0,0E0],"parents":[2147483647,0,0],"right_children":[2,-1,-1],"split_conditions":[8E0,1.5563253E-1,-1.5276909E-1],"split_indices":[0,0,0],"split_type":[0,0,0],"sum_hessian":[2.4173783E4,5.6616416E3,1.851214E4],"tree_param":{"num_deleted":"0","num_feature":"9","num_nodes":"3","size_leaf_vector":"1"}},{"base_weights":[3.6684877E-1,-1.5272486E-1,4.4142842E-1,1.5565425E-1,-5.080209E-1,-5.085668E-1,9.229943E-2,-1.5271808E-1,8.894659E-2],"categories":[],"categories_nodes":[],"categories_segments":[],"categories_sizes":[],"default_left":[0,0,0,0,0,0,0,0,0],"id":31,"left_children":[1,-1,3,-1,5,7,-1,-1,-1],"loss_changes":[2.402187E3,0E0,2.4909272E3,0E0,1.2943115E0,1.1654663E0,0E0,0E0,0E0],"parents":[2147483647,0,0,2,2,4,4,5,5],"right_children":[2,-1,4,-1,6,8,-1,-1,-1],"split_conditions":[8E0,-1.5272486E-1,1.4E1,1.5565425E-1,1.8E1,1.7E1,9.229943E-2,-1.5271808E-1,8.894659E-2],"split_indices":[0,0,0,0,1,3,0,0,0],"split_type":[0,0,0,0,0,0,0,0,0],"sum_hessian":[3.6767477E4,2.8844172E3,3.388306E4,3.132892E4,2.5541382E3,2.5528062E3,1.3319885E0,2.5516099E3,1.1963947E0],"tree_param":{"num_deleted":"0","num_feature":"9","num_nodes":"9","size_leaf_vector":"1"}},{"base_weights":[-2.933832E-1,-1.5276913E-1,5.18418E-1,5.185853E-1,-2.1493332E-2,1.5562905E-1,1.7445403E-1,-1.3469975E-3,9.084492E-2],"categories":[],"categories_nodes":[],"categories_segments":[],"categories_sizes":[],"default_left":[0,0,0,0,0,0,0,0,0],"id":32,"left_children":[1,-1,3,5,-1,-1,7,-1,-1],"loss_changes":[4.1802563E3,0E0,5.3186035E-1,2.166748E-1,0E0,0E0,9.551813E-2,0E0,0E0],"parents":[2147483647,0,0,2,2,3,3,6,6],"right_children":[2,-1,4,6,-1,-1,8,-1,-1],"split_conditions":[1.4E1,-1.5276913E-1,1.6E1,1.6E1,-2.1493332E-2,1.5562905E-1,1E0,-1.3469975E-3,9.084492E-2],"split_indices":[0,0,3,1,0,0,4,0,0],"split_type":[0,0,0,0,0,0,0,0,0],"sum_hessian":[2.3853992E4,1.8843996E4,5.009997E3,5.008698E3,1.2987343E0,5.005599E3,3.0992517E0,1.6976532E0,1.4015986E0],"tree_param":{"num_deleted":"0","num_feature":"9","num_nodes":"9","size_leaf_vector":"1"}},{"base_weights":[-2.66859E-1,1.541217E-1,-1.5203935E-1],"categories":[],"categories_nodes":[],"categories_segments":[],"categories_sizes":[],"default_left":[0,0,0],"id":33,"left_children":[1,-1,-1],"loss_changes":[3.3789165E3,0E0,0E0],"parents":[2147483647,0,0],"right_children":[2,-1,-1],"split_conditions":[8E0,1.541217E-1,-1.5203935E-1],"split_indices":[0,0,0],"split_type":[0,0,0],"sum_hessian":[1.803815E4,4.240688E3,1.3797462E4],"tree_param":{"num_deleted":"0","num_feature":"9","num_nodes":"3","size_leaf_vector":"1"}},{"base_weights":[3.6355895E-1,-1.519801E-1,4.373179E-1,1.5415071E-1,-5.053555E-1,-5.0599486E-1,8.633584E-2,-1.5197119E-1,8.2647696E-2],"categories":[],"categories_nodes":[],"categories_segments":[],"categories_sizes":[],"default_left":[0,0,0,0,0,0,0,0,0],"id":34,"left_children":[1,-1,3,-1,5,7,-1,-1,-1],"loss_changes":[1.7665205E3,0E0,1.8302461E3,0E0,1.1117554E0,9.963074E-1,0E0,0E0,0E0],"parents":[2147483647,0,0,2,2,4,4,5,5],"right_children":[2,-1,4,-1,6,8,-1,-1,-1],"split_conditions":[8E0,-1.519801E-1,1.4E1,1.5415071E-1,1.8E1,1.7E1,8.633584E-2,-1.5197119E-1,8.2647696E-2],"split_indices":[0,0,0,0,1,3,0,0,0],"split_type":[0,0,0,0,0,0,0,0,0],"sum_hessian":[2.7519139E4,2.1499219E3,2.5369217E4,2.3464992E4,1.904223E3,1.903051E3,1.1720002E0,1.9020015E3,1.0495828E0],"tree_param":{"num_deleted":"0","num_feature":"9","num_nodes":"9","size_leaf_vector":"1"}},{"base_weights":[-2.9166538E-1,-1.5203944E-1,5.1330465E-1,5.1350623E-1,-2.1491323E-2,1.5411708E-1,1.4821246E-1,-4.2200857E-3,8.145365E-2],"categories":[],"categories_nodes":[],"categories_segments":[],"categories_sizes":[],"default_left":[0,0,0,0,0,0,0,0,0],"id":35,"left_children":[1,-1,3,5,-1,-1,7,-1,-1],"loss_changes":[3.0825674E3,0E0,4.7943115E-1,2.218628E-1,0E0,0E0,7.65954E-2,0E0,0E0],"parents":[2147483647,0,0,2,2,3,3,6,6],"right_children":[2,-1,4,6,-1,-1,8,-1,-1],"split_conditions":[1.4E1,-1.5203944E-1,1.6E1,1.6E1,-2.1491323E-2,1.5411708E-1,1E0,-4.2200857E-3,8.145365E-2],"split_indices":[0,0,3,1,0,0,4,0,0],"split_type":[0,0,0,0,0,0,0,0,0],"sum_hessian":[1.7797762E4,1.4044627E4,3.753134E3,3.7519634E3,1.1707447E0,3.7493262E3,2.637166E0,1.5211003E0,1.1160657E0],"tree_param":{"num_deleted":"0","num_feature":"9","num_nodes":"9","size_leaf_vector":"1"}},{"base_weights":[-2.6568145E-1,1.5301321E-1,-1.5150033E-1],"categories":[],"categories_nodes":[],"categories_segments":[],"categories_sizes":[],"default_left":[0,0,0],"id":36,"left_children":[1,-1,-1],"loss_changes":[2.4945503E3,0E0,0E0],"parents":[2147483647,0,0],"right_children":[2,-1,-1],"split_conditions":[8E0,1.5301321E-1,-1.5150033E-1],"split_indices":[0,0,0],"split_type":[0,0,0],"sum_hessian":[1.3434725E4,3.1672703E3,1.0267454E4],"tree_param":{"num_deleted":"0","num_feature":"9","num_nodes":"3","size_leaf_vector":"1"}},{"base_weights":[3.611458E-1,-1.5142086E-1,4.343077E-1,1.5305206E-1,-5.032633E-1,-5.040186E-1,8.080257E-2,-1.514088E-1,5.5471517E-2],"categories":[],"categories_nodes":[],"categories_segments":[],"categories_sizes":[],"default_left":[0,0,0,0,0,0,0,0,0],"id":37,"left_children":[1,-1,3,-1,5,7,-1,-1,-1],"loss_changes":[1.3016067E3,0E0,1.3476621E3,0E0,9.635925E-1,7.548523E-1,0E0,0E0,0E0],"parents":[2147483647,0,0,2,2,4,4,5,5],"right_children":[2,-1,4,-1,6,8,-1,-1,-1],"split_conditions":[8E0,-1.5142086E-1,1.4E1,1.5305206E-1,1.8E1,1.6E1,8.080257E-2,-1.514088E-1,5.5471517E-2],"split_indices":[0,0,0,0,1,3,0,0,0],"split_type":[0,0,0,0,0,0,0,0,0],"sum_hessian":[2.0541955E4,1.599986E3,1.8941969E4,1.7524396E4,1.4175726E3,1.4165354E3,1.0371838E0,1.4154111E3,1.1243337E0],"tree_param":{"num_deleted":"0","num_feature":"9","num_nodes":"9","size_leaf_vector":"1"}},{"base_weights":[-2.903924E-1,-1.5150046E-1,5.095115E-1,5.097564E-1,-2.1557722E-2,1.5300702E-1,3.721317E-2],"categories":[],"categories_nodes":[],"categories_segments":[],"categories_sizes":[],"default_left":[0,0,0,0,0,0,0],"id":38,"left_children":[1,-1,3,5,-1,-1,-1],"loss_changes":[2.2758467E3,0E0,4.3597412E-1,2.2546387E-1,0E0,0E0,0E0],"parents":[2147483647,0,0,2,2,3,3],"right_children":[2,-1,4,6,-1,-1,-1],"split_conditions":[1.4E1,-1.5150046E-1,1.6E1,1.6E1,-2.1557722E-2,1.5300702E-1,3.721317E-2],"split_indices":[0,0,3,1,0,0,0],"split_type":[0,0,0,0,0,0,0],"sum_hessian":[1.3254856E4,1.0451227E4,2.80363E3,2.8025723E3,1.0575947E0,2.8003118E3,2.2605007E0],"tree_param":{"num_deleted":"0","num_feature":"9","num_nodes":"7","size_leaf_vector":"1"}},{"base_weights":[-2.6480585E-1,1.5219344E-1,-1.5110052E-1],"categories":[],"categories_nodes":[],"categories_segments":[],"categories_sizes":[],"default_left":[0,0,0],"id":39,"left_children":[1,-1,-1],"loss_changes":[1.8433427E3,0E0,0E0],"parents":[2147483647,0,0],"right_children":[2,-1,-1],"split_conditions":[8E0,1.5219344E-1,-1.5110052E-1],"split_indices":[0,0,0],"split_type":[0,0,0],"sum_hessian":[9.992429E3,2.360629E3,7.6317993E3],"tree_param":{"num_deleted":"0","num_feature":"9","num_nodes":"3","size_leaf_vector":"1"}},{"base_weights":[3.593636E-1,-1.5099376E-1,4.32089E-1,1.5224554E-1,-5.0151277E-1,-5.023307E-1,4.893918E-2,-1.5097722E-1,2.0099418E-2],"categories":[],"categories_nodes":[],"categories_segments":[],"categories_sizes":[],"default_left":[0,0,0,0,0,0,0,0,0],"id":40,"left_children":[1,-1,3,-1,5,7,-1,-1,-1],"loss_changes":[9.604219E2,0E0,9.938435E2,0E0,6.5560913E-1,5.899353E-1,0E0,0E0,0E0],"parents":[2147483647,0,0,2,2,4,4,5,5],"right_children":[2,-1,4,-1,6,8,-1,-1,-1],"split_conditions":[8E0,-1.5099376E-1,1.4E1,1.5224554E-1,1.6E1,1.6E1,4.893918E-2,-1.5097722E-1,2.0099418E-2],"split_indices":[0,0,0,0,3,1,0,0,0],"split_type":[0,0,0,0,0,0,0,0,0],"sum_hessian":[1.5303877E4,1.1893822E3,1.4114494E4,1.3060229E4,1.0542656E3,1.0532137E3,1.0518918E0,1.051618E3,1.5956742E0],"tree_param":{"num_deleted":"0","num_feature":"9","num_nodes":"9","size_leaf_vector":"1"}},{"base_weights":[-2.8943902E-1,-1.5110075E-1,5.066346E-1,5.069399E-1,-1.9164149E-2,1.5218511E-1,2.88452E-2],"categories":[],"categories_nodes":[],"categories_segments":[],"categories_sizes":[],"default_left":[0,0,0,0,0,0,0],"id":41,"left_children":[1,-1,3,5,-1,-1,-1],"loss_changes":[1.6817048E3,0E0,3.9666748E-1,2.4639893E-1,0E0,0E0,0E0],"parents":[2147483647,0,0,2,2,3,3],"right_children":[2,-1,4,6,-1,-1,-1],"split_conditions":[1.4E1,-1.5110075E-1,1.6E1,1.6E1,-1.9164149E-2,1.5218511E-1,2.88452E-2],"split_indices":[0,0,3,1,0,0,0],"split_type":[0,0,0,0,0,0,0],"sum_hessian":[9.858391E3,7.7682554E3,2.0901357E3,2.0891292E3,1.0065122E0,2.0871475E3,1.9817764E0],"tree_param":{"num_deleted":"0","num_feature":"9","num_nodes":"7","size_leaf_vector":"1"}},{"base_weights":[-2.641503E-1,1.51581E-1,-1.5080225E-1],"categories":[],"categories_nodes":[],"categories_segments":[],"categories_sizes":[],"default_left":[0,0,0],"id":42,"left_children":[1,-1,-1],"loss_changes":[1.3630538E3,0E0,0E0],"parents":[2147483647,0,0],"right_children":[2,-1,-1],"split_conditions":[8E0,1.51581E-1,-1.5080225E-1],"split_indices":[0,0,0],"split_type":[0,0,0],"sum_hessian":[7.424685E3,1.7567422E3,5.667943E3],"tree_param":{"num_deleted":"0","num_feature":"9","num_nodes":"3","size_leaf_vector":"1"}},{"base_weights":[3.5803077E-1,-1.5065868E-1,4.3043524E-1,1.51651E-1,-4.9991933E-1,-5.009187E-1,3.993616E-2,-1.5063643E-1,1.8638123E-2],"categories":[],"categories_nodes":[],"categories_segments":[],"categories_sizes":[],"default_left":[0,0,0,0,0,0,0,0,0],"id":43,"left_children":[1,-1,3,-1,5,7,-1,-1,-1],"loss_changes":[7.094061E2,0E0,7.3377454E2,0E0,5.631256E-1,5.619049E-1,0E0,0E0,0E0],"parents":[2147483647,0,0,2,2,4,4,5,5],"right_children":[2,-1,4,-1,6,8,-1,-1,-1],"split_conditions":[8E0,-1.5065868E-1,1.4E1,1.51651E-1,8.82E-1,1.6E1,3.993616E-2,-1.5063643E-1,1.8638123E-2],"split_indices":[0,0,0,0,7,1,0,0,0],"split_type":[0,0,0,0,0,0,0,0,0],"sum_hessian":[1.1385346E4,8.8343646E2,1.0501909E4,9.718226E3,7.836833E2,7.8265643E2,1.0268468E0,7.81096E2,1.5604047E0],"tree_param":{"num_deleted":"0","num_feature":"9","num_nodes":"9","size_leaf_vector":"1"}},{"base_weights":[-2.8870702E-1,-1.5080258E-1,5.043835E-1,5.0476766E-1,-1.1613052E-2,1.5156983E-1,2.3663456E-2],"categories":[],"categories_nodes":[],"categories_segments":[],"categories_sizes":[],"default_left":[0,0,0,0,0,0,0],"id":44,"left_children":[1,-1,3,5,-1,-1,-1],"loss_changes":[1.2434885E3,0E0,3.4439087E-1,2.6834106E-1,0E0,0E0,0E0],"parents":[2147483647,0,0,2,2,3,3],"right_children":[2,-1,4,6,-1,-1,-1],"split_conditions":[1.4E1,-1.5080258E-1,8.82E-1,1.6E1,-1.1613052E-2,1.5156983E-1,2.3663456E-2],"split_indices":[0,0,7,1,0,0,0],"split_type":[0,0,0,0,0,0,0],"sum_hessian":[7.325241E3,5.769147E3,1.5560944E3,1.555065E3,1.0293713E0,1.5531826E3,1.8823771E0],"tree_param":{"num_deleted":"0","num_feature":"9","num_nodes":"7","size_leaf_vector":"1"}},{"base_weights":[-2.636517E-1,1.511166E-1,-1.5057768E-1],"categories":[],"categories_nodes":[],"categories_segments":[],"categories_sizes":[],"default_left":[0,0,0],"id":45,"left_children":[1,-1,-1],"loss_changes":[1.0084158E3,0E0,0E0],"parents":[2147483647,0,0],"right_children":[2,-1,-1],"split_conditions":[8E0,1.511166E-1,-1.5057768E-1],"split_indices":[0,0,0],"split_type":[0,0,0],"sum_hessian":[5.512754E3,1.3059047E3,4.206849E3],"tree_param":{"num_deleted":"0","num_feature":"9","num_nodes":"3","size_leaf_vector":"1"}},{"base_weights":[3.5702023E-1,-1.5038452E-1,4.2918977E-1,1.5121067E-1,-4.9837428E-1,-4.9993488E-1,1.720365E-2,-1.5035461E-1,3.3547714E-2],"categories":[],"categories_nodes":[],"categories_segments":[],"categories_sizes":[],"default_left":[0,0,0,0,0,0,0,0,0],"id":46,"left_children":[1,-1,3,-1,5,7,-1,-1,-1],"loss_changes":[5.24397E2,0E0,5.422097E2,0E0,5.345917E-1,4.9996948E-1,0E0,0E0,0E0],"parents":[2147483647,0,0,2,2,4,4,5,5],"right_children":[2,-1,4,-1,6,8,-1,-1,-1],"split_conditions":[8E0,-1.5038452E-1,1.4E1,1.5121067E-1,1.6E1,1.5E1,1.720365E-2,-1.5035461E-1,3.3547714E-2],"split_indices":[0,0,0,0,1,3,0,0,0],"split_type":[0,0,0,0,0,0,0,0,0],"sum_hessian":[8.461288E3,6.558163E2,7.8054717E3,7.223092E3,5.823796E2,5.808488E2,1.5307888E0,5.798475E2,1.0013126E0],"tree_param":{"num_deleted":"0","num_feature":"9","num_nodes":"9","size_leaf_vector":"1"}},{"base_weights":[-2.8813294E-1,-1.5057814E-1,5.0255257E-1,5.030439E-1,-7.865748E-3,1.5110157E-1,1.9320223E-2],"categories":[],"categories_nodes":[],"categories_segments":[],"categories_sizes":[],"default_left":[0,0,0,0,0,0,0],"id":47,"left_children":[1,-1,3,5,-1,-1,-1],"loss_changes":[9.198932E2,0E0,3.1417847E-1,2.8637695E-1,0E0,0E0,0E0],"parents":[2147483647,0,0,2,2,3,3],"right_children":[2,-1,4,6,-1,-1,-1],"split_conditions":[1.4E1,-1.5057814E-1,1.5E1,1.6E1,-7.865748E-3,1.5110157E-1,1.9320223E-2],"split_indices":[0,0,3,1,0,0,0],"split_type":[0,0,0,0,0,0,0],"sum_hessian":[5.4392476E3,4.281842E3,1.157406E3,1.1563801E3,1.0258895E0,1.154579E3,1.8011065E0],"tree_param":{"num_deleted":"0","num_feature":"9","num_nodes":"7","size_leaf_vector":"1"}},{"base_weights":[-2.6326364E-1,1.5075605E-1,-1.50406E-1],"categories":[],"categories_nodes":[],"categories_segments":[],"categories_sizes":[],"default_left":[0,0,0],"id":48,"left_children":[1,-1,-1],"loss_changes":[7.463295E2,0E0,0E0],"parents":[2147483647,0,0],"right_children":[2,-1,-1],"split_conditions":[8E0,1.5075605E-1,-1.50406E-1],"split_indices":[0,0,0],"split_type":[0,0,0],"sum_hessian":[4.0910151E3,9.700068E2,3.1210083E3],"tree_param":{"num_deleted":"0","num_feature":"9","num_nodes":"3","size_leaf_vector":"1"}},{"base_weights":[3.5624087E-1,-1.5014601E-1,4.2823696E-1,1.5088265E-1,-4.9674782E-1,1.6415678E-2,-4.9878892E-1,-1.5010731E-1,2.5552722E-2],"categories":[],"categories_nodes":[],"categories_segments":[],"categories_sizes":[],"default_left":[0,0,0,0,0,0,0,0,0],"id":49,"left_children":[1,-1,3,-1,5,-1,7,-1,-1],"loss_changes":[3.8785907E2,0E0,4.0089893E2,0E0,5.155411E-1,0E0,4.3863678E-1,0E0,0E0],"parents":[2147483647,0,0,2,2,4,4,6,6],"right_children":[2,-1,4,-1,6,-1,8,-1,-1],"split_conditions":[8E0,-1.5014601E-1,1.4E1,1.5088265E-1,1E0,1.6415678E-2,8.75E-1,-1.5010731E-1,2.5552722E-2],"split_indices":[0,0,0,0,3,0,7,0,0],"split_type":[0,0,0,0,0,0,0,0,0],"sum_hessian":[6.2836655E3,4.866581E2,5.7970073E3,5.3642285E3,4.327787E2,1.5007217E0,4.3127798E2,4.3026526E2,1.0127095E0],"tree_param":{"num_deleted":"0","num_feature":"9","num_nodes":"9","size_leaf_vector":"1"}},{"base_weights":[-2.8766418E-1,-1.5040669E-1,5.0097156E-1,5.018156E-1,1.5706133E-2,1.5073581E-1,-4.1838622E-4],"categories":[],"categories_nodes":[],"categories_segments":[],"categories_sizes":[],"default_left":[0,0,0,0,0,0,0],"id":50,"left_children":[1,-1,3,5,-1,-1,-1],"loss_changes":[6.807356E2,0E0,2.9989624E-1,2.7627563E-1,0E0,0E0,0E0],"parents":[2147483647,0,0,2,2,3,3],"right_children":[2,-1,4,6,-1,-1,-1],"split_conditions":[1.4E1,-1.5040669E-1,1.6E1,8.75E-1,1.5706133E-2,1.5073581E-1,-4.1838622E-4],"split_indices":[0,0,1,7,0,0,0],"split_type":[0,0,0,0,0,0,0],"sum_hessian":[4.036892E3,3.1765322E3,8.603597E2,8.586256E2,1.7340677E0,8.575415E2,1.0841657E0],"tree_param":{"num_deleted":"0","num_feature":"9","num_nodes":"7","size_leaf_vector":"1"}},{"base_weights":[-2.629544E-1,1.5046558E-1,-1.5027146E-1],"categories":[],"categories_nodes":[],"categories_segments":[],"categories_sizes":[],"default_left":[0,0,0],"id":51,"left_children":[1,-1,-1],"loss_changes":[5.525094E2,0E0,0E0],"parents":[2147483647,0,0],"right_children":[2,-1,-1],"split_conditions":[8E0,1.5046558E-1,-1.5027146E-1],"split_indices":[0,0,0],"split_type":[0,0,0],"sum_hessian":[3.0348098E3,7.201016E2,2.3147083E3],"tree_param":{"num_deleted":"0","num_feature":"9","num_nodes":"3","size_leaf_vector":"1"}},{"base_weights":[3.5561603E-1,-1.4992145E-1,4.274857E-1,1.5063602E-1,-4.9489146E-1,-4.9755386E-1,2.095046E-2,-1.4986743E-1,1.761071E-2],"categories":[],"categories_nodes":[],"categories_segments":[],"categories_sizes":[],"default_left":[0,0,0,0,0,0,0,0,0],"id":52,"left_children":[1,-1,3,-1,5,7,-1,-1,-1],"loss_changes":[2.8699097E2,0E0,2.965381E2,0E0,5.1992035E-1,3.875351E-1,0E0,0E0,0E0],"parents":[2147483647,0,0,2,2,4,4,5,5],"right_children":[2,-1,4,-1,6,8,-1,-1,-1],"split_conditions":[8E0,-1.4992145E-1,1.4E1,1.5063602E-1,1.6E1,8.67E-1,2.095046E-2,-1.4986743E-1,1.761071E-2],"split_indices":[0,0,0,0,1,7,0,0,0],"split_type":[0,0,0,0,0,0,0,0,0],"sum_hessian":[4.6640176E3,3.6104926E2,4.3029683E3,3.9812778E3,3.216903E2,3.202992E2,1.391101E0,3.1925082E2,1.0483619E0],"tree_param":{"num_deleted":"0","num_feature":"9","num_nodes":"9","size_leaf_vector":"1"}},{"base_weights":[-2.8726265E-1,-1.5027241E-1,4.99489E-1,5.0062525E-1,7.7155717E-3,1.5043846E-1,-8.197611E-4],"categories":[],"categories_nodes":[],"categories_segments":[],"categories_sizes":[],"default_left":[0,0,0,0,0,0,0],"id":53,"left_children":[1,-1,3,5,-1,-1,-1],"loss_changes":[5.0385986E2,0E0,3.318329E-1,2.702484E-1,0E0,0E0,0E0],"parents":[2147483647,0,0,2,2,3,3],"right_children":[2,-1,4,6,-1,-1,-1],"split_conditions":[1.4E1,-1.5027241E-1,1.6E1,8.75E-1,7.7155717E-3,1.5043846E-1,-8.197611E-4],"split_indices":[0,0,1,7,0,0,0],"split_type":[0,0,0,0,0,0,0],"sum_hessian":[2.995146E3,2.3557866E3,6.3935925E2,6.377731E2,1.5862355E0,6.36719E2,1.0540586E0],"tree_param":{"num_deleted":"0","num_feature":"9","num_nodes":"7","size_leaf_vector":"1"}},{"base_weights":[-2.6268116E-1,1.5021835E-1,-1.5016168E-1],"categories":[],"categories_nodes":[],"categories_segments":[],"categories_sizes":[],"default_left":[0,0,0],"id":54,"left_children":[1,-1,-1],"loss_changes":[4.0913226E2,0E0,0E0],"parents":[2147483647,0,0],"right_children":[2,-1,-1],"split_conditions":[8E0,1.5021835E-1,-1.5016168E-1],"split_indices":[0,0,0],"split_type":[0,0,0],"sum_hessian":[2.2507642E3,5.34422E2,1.7163423E3],"tree_param":{"num_deleted":"0","num_feature":"9","num_nodes":"3","size_leaf_vector":"1"}},{"base_weights":[3.5509005E-1,-1.4969058E-1,4.2686713E-1,1.5044783E-1,-4.9269268E-1,2.9189758E-2,-4.9615097E-1,-1.4962062E-1,1.5885284E-2],"categories":[],"categories_nodes":[],"categories_segments":[],"categories_sizes":[],"default_left":[0,0,0,0,0,0,0,0,0],"id":55,"left_children":[1,-1,3,-1,5,-1,7,-1,-1],"loss_changes":[2.124209E2,0E0,2.1941815E2,0E0,5.3845215E-1,0E0,3.6558533E-1,0E0,0E0],"parents":[2147483647,0,0,2,2,4,4,6,6],"right_children":[2,-1,4,-1,6,-1,8,-1,-1],"split_conditions":[8E0,-1.4969058E-1,1.4E1,1.5044783E-1,1E0,2.9189758E-2,8.67E-1,-1.4962062E-1,1.5885284E-2],"split_indices":[0,0,0,0,3,0,7,0,0],"split_type":[0,0,0,0,0,0,0,0,0],"sum_hessian":[3.4606904E3,2.6783484E2,3.1928557E3,2.9536138E3,2.3924174E2,1.2360379E0,2.380057E2,2.3698204E2,1.0236732E0],"tree_param":{"num_deleted":"0","num_feature":"9","num_nodes":"9","size_leaf_vector":"1"}},{"base_weights":[-2.8687924E-1,-1.5016301E-1,4.9799225E-1,1.6729205E-3,4.9950886E-1,1.5018436E-1,-1.4259618E-3],"categories":[],"categories_nodes":[],"categories_segments":[],"categories_sizes":[],"default_left":[0,0,0,0,0,0,0],"id":56,"left_children":[1,-1,3,-1,5,-1,-1],"loss_changes":[3.7301962E2,0E0,3.5279083E-1,0E0,2.670288E-1,0E0,0E0],"parents":[2147483647,0,0,2,2,4,4],"right_children":[2,-1,4,-1,6,-1,-1],"split_conditions":[1.4E1,-1.5016301E-1,1E0,1.6729205E-3,8.75E-1,1.5018436E-1,-1.4259618E-3],"split_indices":[0,0,3,0,7,0,0],"split_type":[0,0,0,0,0,0,0],"sum_hessian":[2.221855E3,1.7467128E3,4.751422E2,1.473261E0,4.7366895E2,4.7263986E2,1.0290847E0],"tree_param":{"num_deleted":"0","num_feature":"9","num_nodes":"7","size_leaf_vector":"1"}},{"base_weights":[-2.624373E-1,1.4999168E-1,-1.5006669E-1],"categories":[],"categories_nodes":[],"categories_segments":[],"categories_sizes":[],"default_left":[0,0,0],"id":57,"left_children":[1,-1,-1],"loss_changes":[3.0300726E2,0E0,0E0],"parents":[2147483647,0,0],"right_children":[2,-1,-1],"split_conditions":[8E0,1.4999168E-1,-1.5006669E-1],"split_indices":[0,0,0],"split_type":[0,0,0],"sum_hessian":[1.6690204E3,3.9652863E2,1.2724918E3],"tree_param":{"num_deleted":"0","num_feature":"9","num_nodes":"3","size_leaf_vector":"1"}},{"base_weights":[3.5462093E-1,-1.4943282E-1,4.263339E-1,1.5030065E-1,-4.9001947E-1,-4.9444324E-1,2.7008256E-2,-1.4933598E-1,1.4311232E-2],"categories":[],"categories_nodes":[],"categories_segments":[],"categories_sizes":[],"default_left":[0,0,0,0,0,0,0,0,0],"id":58,"left_children":[1,-1,3,-1,5,7,-1,-1,-1],"loss_changes":[1.5726562E2,0E0,1.6237671E2,0E0,5.0392914E-1,3.4609222E-1,0E0,0E0,0E0],"parents":[2147483647,0,0,2,2,4,4,5,5],"right_children":[2,-1,4,-1,6,8,-1,-1,-1],"split_conditions":[8E0,-1.4943282E-1,1.4E1,1.5030065E-1,1.6E1,8.67E-1,2.7008256E-2,-1.4933598E-1,1.4311232E-2],"split_indices":[0,0,0,0,1,7,0,0,0],"split_type":[0,0,0,0,0,0,0,0,0],"sum_hessian":[2.5672507E3,1.9869122E2,2.3685593E3,2.19052E3,1.7803932E2,1.7683823E2,1.201084E0,1.7583571E2,1.0025278E0],"tree_param":{"num_deleted":"0","num_feature":"9","num_nodes":"9","size_leaf_vector":"1"}},{"base_weights":[-2.8650528E-1,-1.5006852E-1,4.963675E-1,4.983472E-1,-5.757479E-3,1.4994295E-1,-1.8597216E-3],"categories":[],"categories_nodes":[],"categories_segments":[],"categories_sizes":[],"default_left":[0,0,0,0,0,0,0],"id":59,"left_children":[1,-1,3,5,-1,-1,-1],"loss_changes":[2.76168E2,0E0,3.710251E-1,2.634735E-1,0E0,0E0,0E0],"parents":[2147483647,0,0,2,2,3,3],"right_children":[2,-1,4,6,-1,-1,-1],"split_conditions":[1.4E1,-1.5006852E-1,1.6E1,8.75E-1,-5.757479E-3,1.4994295E-1,-1.8597216E-3],"split_indices":[0,0,1,7,0,0,0],"split_type":[0,0,0,0,0,0,0],"sum_hessian":[1.6480734E3,1.2949225E3,3.531509E2,3.518333E2,1.3175972E0,3.5082568E2,1.0076361E0],"tree_param":{"num_deleted":"0","num_feature":"9","num_nodes":"7","size_leaf_vector":"1"}},{"base_weights":[-2.6218593E-1,1.4976507E-1,-1.4997785E-1],"categories":[],"categories_nodes":[],"categories_segments":[],"categories_sizes":[],"default_left":[0,0,0],"id":60,"left_children":[1,-1,-1],"loss_changes":[2.2444775E2,0E0,0E0],"parents":[2147483647,0,0],"right_children":[2,-1,-1],"split_conditions":[8E0,1.4976507E-1,-1.4997785E-1],"split_indices":[0,0,0],"split_type":[0,0,0],"sum_hessian":[1.237554E3,2.9420697E2,9.4334705E2],"tree_param":{"num_deleted":"0","num_feature":"9","num_nodes":"3","size_leaf_vector":"1"}},{"base_weights":[3.5415447E-1,-1.4912555E-1,4.2582604E-1,1.5018098E-1,-4.8667935E-1,3.2824393E-2,-4.9233273E-1,-1.4899848E-1,8.356263E-3],"categories":[],"categories_nodes":[],"categories_segments":[],"categories_sizes":[],"default_left":[0,0,0,0,0,0,0,0,0],"id":61,"left_children":[1,-1,3,-1,5,-1,7,-1,-1],"loss_changes":[1.16450455E2,0E0,1.2018857E2,0E0,5.0424767E-1,0E0,3.1236267E-1,0E0,0E0],"parents":[2147483647,0,0,2,2,4,4,6,6],"right_children":[2,-1,4,-1,6,-1,8,-1,-1],"split_conditions":[8E0,-1.4912555E-1,1.4E1,1.5018098E-1,1E0,3.2824393E-2,8.46E-1,-1.4899848E-1,8.356263E-3],"split_indices":[0,0,0,0,3,0,7,0,0],"split_type":[0,0,0,0,0,0,0,0,0],"sum_hessian":[1.9042517E3,1.4741968E2,1.756832E3,1.624186E3,1.32646E2,1.0737718E0,1.3157224E2,1.305312E2,1.0410211E0],"tree_param":{"num_deleted":"0","num_feature":"9","num_nodes":"9","size_leaf_vector":"1"}},{"base_weights":[-2.8609756E-1,-1.4998038E-1,4.9448764E-1,-1.0174235E-2,4.9707088E-1,1.4970183E-1,2.4940053E-3],"categories":[],"categories_nodes":[],"categories_segments":[],"categories_sizes":[],"default_left":[0,0,0,0,0,0,0],"id":62,"left_children":[1,-1,3,-1,5,-1,-1],"loss_changes":[2.0447357E2,0E0,3.7667084E-1,0E0,2.4402618E-1,0E0,0E0],"parents":[2147483647,0,0,2,2,4,4],"right_children":[2,-1,4,-1,6,-1,-1],"split_conditions":[1.4E1,-1.4998038E-1,1E0,-1.0174235E-2,8.67E-1,1.4970183E-1,2.4940053E-3],"split_indices":[0,0,3,0,7,0,0],"split_type":[0,0,0,0,0,0,0],"sum_hessian":[1.2225131E3,9.599104E2,2.6260263E2,1.2185651E0,2.6138406E2,2.6033234E2,1.0517422E0],"tree_param":{"num_deleted":"0","num_feature":"9","num_nodes":"7","size_leaf_vector":"1"}},{"base_weights":[-2.6192015E-1,1.4951827E-1,-1.498871E-1],"categories":[],"categories_nodes":[],"categories_segments":[],"categories_sizes":[],"default_left":[0,0,0],"id":63,"left_children":[1,-1,-1],"loss_changes":[1.662735E2,0E0,0E0],"parents":[2147483647,0,0],"right_children":[2,-1,-1],"split_conditions":[8E0,1.4951827E-1,-1.498871E-1],"split_indices":[0,0,0],"split_type":[0,0,0],"sum_hessian":[9.176358E2,2.1829724E2,6.9933856E2],"tree_param":{"num_deleted":"0","num_feature":"9","num_nodes":"3","size_leaf_vector":"1"}},{"base_weights":[3.5366905E-1,-1.4874221E-1,4.2531466E-1,1.5007791E-1,-4.824401E-1,-4.8956773E-1,3.0073427E-2,-1.4856912E-1,7.837984E-3],"categories":[],"categories_nodes":[],"categories_segments":[],"categories_sizes":[],"default_left":[0,0,0,0,0,0,0,0,0],"id":64,"left_children":[1,-1,3,-1,5,7,-1,-1,-1],"loss_changes":[8.624211E1,0E0,8.896504E1,0E0,4.6426582E-1,3.01836E-1,0E0,0E0,0E0],"parents":[2147483647,0,0,2,2,4,4,5,5],"right_children":[2,-1,4,-1,6,8,-1,-1,-1],"split_conditions":[8E0,-1.4874221E-1,1.4E1,1.5007791E-1,1.6E1,8.46E-1,3.0073427E-2,-1.4856912E-1,7.837984E-3],"split_indices":[0,0,0,0,1,7,0,0,0],"split_type":[0,0,0,0,0,0,0,0,0],"sum_hessian":[1.4125624E3,1.09409775E2,1.3031526E3,1.2041831E3,9.89695E1,9.793137E1,1.0381252E0,9.690695E1,1.0244197E0],"tree_param":{"num_deleted":"0","num_feature":"9","num_nodes":"9","size_leaf_vector":"1"}},{"base_weights":[-2.8563273E-1,-1.4989059E-1,4.9220043E-1,4.9551845E-1,-1.455079E-2,1.4943065E-1,1.0175222E-3],"categories":[],"categories_nodes":[],"categories_segments":[],"categories_sizes":[],"default_left":[0,0,0,0,0,0,0],"id":65,"left_children":[1,-1,3,5,-1,-1,-1],"loss_changes":[1.5138382E2,0E0,3.7640762E-1,2.4663544E-1,0E0,0E0,0E0],"parents":[2147483647,0,0,2,2,3,3],"right_children":[2,-1,4,6,-1,-1,-1],"split_conditions":[1.4E1,-1.4989059E-1,1.6E1,1.4E1,-1.455079E-2,1.4943065E-1,1.0175222E-3],"split_indices":[0,0,1,3,0,0,0],"split_type":[0,0,0,0,0,0,0],"sum_hessian":[9.069629E2,7.1155334E2,1.9540955E2,1.9430078E2,1.1087607E0,1.9327393E2,1.0268536E0],"tree_param":{"num_deleted":"0","num_feature":"9","num_nodes":"7","size_leaf_vector":"1"}},{"base_weights":[-2.6157907E-1,1.4922974E-1,-1.497863E-1],"categories":[],"categories_nodes":[],"categories_segments":[],"categories_sizes":[],"default_left":[0,0,0],"id":66,"left_children":[1,-1,-1],"loss_changes":[1.2320629E2,0E0,0E0],"parents":[2147483647,0,0],"right_children":[2,-1,-1],"split_conditions":[8E0,1.4922974E-1,-1.497863E-1],"split_indices":[0,0,0],"split_type":[0,0,0],"sum_hessian":[6.8049615E2,1.620315E2,5.1846466E2],"tree_param":{"num_deleted":"0","num_feature":"9","num_nodes":"3","size_leaf_vector":"1"}},{"base_weights":[3.5311514E-1,-1.4825056E-1,4.247471E-1,1.4998206E-1,-4.7704953E-1,-1.4799239E-1,-6.505485E-2,3.1524066E-2,-7.9647124E-2],"categories":[],"categories_nodes":[],"categories_segments":[],"categories_sizes":[],"default_left":[0,0,0,0,0,0,0,0,0],"id":67,"left_children":[1,-1,3,-1,5,-1,7,-1,-1],"loss_changes":[6.387784E1,0E0,6.586305E1,0E0,4.7026062E-1,0E0,1.6427195E-1,0E0,0E0],"parents":[2147483647,0,0,2,2,4,4,6,6],"right_children":[2,-1,4,-1,6,-1,8,-1,-1],"split_conditions":[8E0,-1.4825056E-1,1.4E1,1.4998206E-1,1.8E1,-1.4799239E-1,1E0,3.1524066E-2,-7.9647124E-2],"split_indices":[0,0,0,0,0,0,2,0,0],"split_type":[0,0,0,0,0,0,0,0,0],"sum_hessian":[1.0480233E3,8.123643E1,9.667869E2,8.927904E2,7.399652E1,7.099741E1,2.9991121E0,1.8794907E0,1.1196214E0],"tree_param":{"num_deleted":"0","num_feature":"9","num_nodes":"9","size_leaf_vector":"1"}},{"base_weights":[-2.850471E-1,-1.4979103E-1,4.8935044E-1,-1.774447E-2,4.936097E-1,1.4911494E-1,-8.364519E-5],"categories":[],"categories_nodes":[],"categories_segments":[],"categories_sizes":[],"default_left":[0,0,0,0,0,0,0],"id":68,"left_children":[1,-1,3,-1,5,-1,-1],"loss_changes":[1.1208281E2,0E0,3.7164688E-1,0E0,2.4744415E-1,0E0,0E0],"parents":[2147483647,0,0,2,2,4,4],"right_children":[2,-1,4,-1,6,-1,-1],"split_conditions":[1.4E1,-1.4979103E-1,1E0,-1.774447E-2,1.4E1,1.4911494E-1,-8.364519E-5],"split_indices":[0,0,3,0,3,0,0],"split_type":[0,0,0,0,0,0,0],"sum_hessian":[6.730524E2,5.2747003E2,1.4558244E2,1.0224764E0,1.4455995E2,1.4355367E2,1.0062946E0],"tree_param":{"num_deleted":"0","num_feature":"9","num_nodes":"7","size_leaf_vector":"1"}},{"base_weights":[-2.6117313E-1,1.4887439E-1,-1.4966644E-1],"categories":[],"categories_nodes":[],"categories_segments":[],"categories_sizes":[],"default_left":[0,0,0],"id":69,"left_children":[1,-1,-1],"loss_changes":[9.1302826E1,0E0,0E0],"parents":[2147483647,0,0],"right_children":[2,-1,-1],"split_conditions":[8E0,1.4887439E-1,-1.4966644E-1],"split_indices":[0,0,0],"split_type":[0,0,0],"sum_hessian":[5.0472113E2,1.20306404E2,3.8441473E2],"tree_param":{"num_deleted":"0","num_feature":"9","num_nodes":"3","size_leaf_vector":"1"}},{"base_weights":[3.5238644E-1,-1.4761044E-1,4.240191E-1,1.4988475E-1,-4.7045147E-1,-1.4726894E-1,-4.4216625E-2,1.44596035E-2,-3.0560667E-2],"categories":[],"categories_nodes":[],"categories_segments":[],"categories_sizes":[],"default_left":[0,0,0,0,0,0,0,0,0],"id":70,"left_children":[1,-1,3,-1,5,-1,7,-1,-1],"loss_changes":[4.7312187E1,0E0,4.8810318E1,0E0,4.7062874E-1,0E0,2.4542958E-2,0E0,0E0],"parents":[2147483647,0,0,2,2,4,4,6,6],"right_children":[2,-1,4,-1,6,-1,8,-1,-1],"split_conditions":[8E0,-1.4761044E-1,1.4E1,1.4988475E-1,1.8E1,-1.4726894E-1,2E0,1.44596035E-2,-3.0560667E-2],"split_indices":[0,0,0,0,0,0,3,0,0],"split_type":[0,0,0,0,0,0,0,0,0],"sum_hessian":[7.777239E2,6.0356728E1,7.173671E2,6.6187024E2,5.549691E1,5.2812E1,2.6849089E0,1.0944713E0,1.5904375E0],"tree_param":{"num_deleted":"0","num_feature":"9","num_nodes":"9","size_leaf_vector":"1"}},{"base_weights":[-2.842593E-1,-1.4967285E-1,4.858546E-1,4.9124822E-1,-3.6243384E-3,1.4871596E-1,1.725492E-3],"categories":[],"categories_nodes":[],"categories_segments":[],"categories_sizes":[],"default_left":[0,0,0,0,0,0,0],"id":71,"left_children":[1,-1,3,5,-1,-1,-1],"loss_changes":[8.3008484E1,0E0,3.0039978E-1,2.3267937E-1,0E0,0E0,0E0],"parents":[2147483647,0,0,2,2,3,3],"right_children":[2,-1,4,6,-1,-1,-1],"split_conditions":[1.4E1,-1.4967285E-1,8.82E-1,8.46E-1,-3.6243384E-3,1.4871596E-1,1.725492E-3],"split_indices":[0,0,5,7,0,0,0],"split_type":[0,0,0,0,0,0,0],"sum_hessian":[4.9968692E2,3.9104498E2,1.08641945E2,1.07491035E2,1.1509079E0,1.0648917E2,1.0018653E0],"tree_param":{"num_deleted":"0","num_feature":"9","num_nodes":"7","size_leaf_vector":"1"}},{"base_weights":[-2.6066703E-1,1.4842238E-1,-1.4951696E-1],"categories":[],"categories_nodes":[],"categories_segments":[],"categories_sizes":[],"default_left":[0,0,0],"id":72,"left_children":[1,-1,-1],"loss_changes":[6.76701E1,0E0,0E0],"parents":[2147483647,0,0],"right_children":[2,-1,-1],"split_conditions":[8E0,1.4842238E-1,-1.4951696E-1],"split_indices":[0,0,0],"split_type":[0,0,0],"sum_hessian":[3.7445593E2,8.937359E1,2.8508234E2],"tree_param":{"num_deleted":"0","num_feature":"9","num_nodes":"3","size_leaf_vector":"1"}},{"base_weights":[3.5143128E-1,-1.4677165E-1,4.2307124E-1,1.4977714E-1,-4.610701E-1,-1.4632188E-1,-2.5172876E-2,1.449708E-2,-2.2960061E-2],"categories":[],"categories_nodes":[],"categories_segments":[],"categories_sizes":[],"default_left":[0,0,0,0,0,0,0,0,0],"id":73,"left_children":[1,-1,3,-1,5,-1,7,-1,-1],"loss_changes":[3.5041924E1,0E0,3.6167915E1,0E0,4.85816E-1,0E0,1.700363E-2,0E0,0E0],"parents":[2147483647,0,0,2,2,4,4,6,6],"right_children":[2,-1,4,-1,6,-1,8,-1,-1],"split_conditions":[8E0,-1.4677165E-1,1.4E1,1.4977714E-1,1.8E1,-1.4632188E-1,2E0,1.449708E-2,-2.2960061E-2],"split_indices":[0,0,0,0,0,0,3,0,0],"split_type":[0,0,0,0,0,0,0,0,0],"sum_hessian":[5.774079E2,4.488372E1,5.3252423E2,4.906781E2,4.1846115E1,3.932138E1,2.524732E0,1.0628865E0,1.4618455E0],"tree_param":{"num_deleted":"0","num_feature":"9","num_nodes":"9","size_leaf_vector":"1"}},{"base_weights":[-2.8321624E-1,-1.4952554E-1,4.8086965E-1,1.4818743E-1,1.19341E-1,-1.6056204E-2,8.531624E-2],"categories":[],"categories_nodes":[],"categories_segments":[],"categories_sizes":[],"default_left":[0,0,0,0,0,0,0],"id":74,"left_children":[1,-1,3,-1,5,-1,-1],"loss_changes":[6.1452385E1,0E0,3.3055496E-1,0E0,1.3489121E-1,0E0,0E0],"parents":[2147483647,0,0,2,2,4,4],"right_children":[2,-1,4,-1,6,-1,-1],"split_conditions":[1.4E1,-1.4952554E-1,1.8E1,1.4818743E-1,1E0,-1.6056204E-2,8.531624E-2],"split_indices":[0,0,0,0,2,0,0],"split_type":[0,0,0,0,0,0,0],"sum_hessian":[3.712654E2,2.8994974E2,8.131567E1,7.812115E1,3.1945224E0,1.8903669E0,1.3041553E0],"tree_param":{"num_deleted":"0","num_feature":"9","num_nodes":"7","size_leaf_vector":"1"}},{"base_weights":[-2.6001078E-1,1.4783713E-1,-1.4932474E-1],"categories":[],"categories_nodes":[],"categories_segments":[],"categories_sizes":[],"default_left":[0,0,0],"id":75,"left_children":[1,-1,-1],"loss_changes":[5.017028E1,0E0,0E0],"parents":[2147483647,0,0],"right_children":[2,-1,-1],"split_conditions":[8E0,1.4783713E-1,-1.4932474E-1],"split_indices":[0,0,0],"split_type":[0,0,0],"sum_hessian":[2.7795786E2,6.645487E1,2.1150298E2],"tree_param":{"num_deleted":"0","num_feature":"9","num_nodes":"3","size_leaf_vector":"1"}},{"base_weights":[3.5016367E-1,-1.4567196E-1,4.218144E-1,1.4964978E-1,-4.4966388E-1,-1.4508E-1,-1.8865578E-2,1.3915357E-2,-1.9836934E-2],"categories":[],"categories_nodes":[],"categories_segments":[],"categories_sizes":[],"default_left":[0,0,0,0,0,0,0,0,0],"id":76,"left_children":[1,-1,3,-1,5,-1,7,-1,-1],"loss_changes":[2.5952744E1,0E0,2.6841667E1,0E0,4.6933508E-1,0E0,1.3644971E-2,0E0,0E0],"parents":[2147483647,0,0,2,2,4,4,6,6],"right_children":[2,-1,4,-1,6,-1,8,-1,-1],"split_conditions":[8E0,-1.4567196E-1,1.4E1,1.4964978E-1,1.8E1,-1.4508E-1,2E0,1.3915357E-2,-1.9836934E-2],"split_indices":[0,0,0,0,0,0,3,0,0],"split_type":[0,0,0,0,0,0,0,0,0],"sum_hessian":[4.2898367E2,3.341799E1,3.9556567E2,3.638385E2,3.1727161E1,2.9296747E1,2.430414E0,1.0286269E0,1.401787E0],"tree_param":{"num_deleted":"0","num_feature":"9","num_nodes":"9","size_leaf_vector":"1"}},{"base_weights":[-2.8170183E-1,-1.4933611E-1,4.7468388E-1,1.4752418E-1,1.0168602E-1,-1.9358393E-2,8.109256E-2],"categories":[],"categories_nodes":[],"categories_segments":[],"categories_sizes":[],"default_left":[0,0,0,0,0,0,0],"id":77,"left_children":[1,-1,3,-1,5,-1,-1],"loss_changes":[4.553174E1,0E0,3.4518242E-1,0E0,1.2890458E-1,0E0,0E0],"parents":[2147483647,0,0,2,2,4,4],"right_children":[2,-1,4,-1,6,-1,-1],"split_conditions":[1.4E1,-1.4933611E-1,1.8E1,1.4752418E-1,1E0,-1.9358393E-2,8.109256E-2],"split_indices":[0,0,0,0,4,0,0],"split_type":[0,0,0,0,0,0,0],"sum_hessian":[2.761317E2,2.1504056E2,6.1091156E1,5.811426E1,2.9768949E0,1.8100357E0,1.1668593E0],"tree_param":{"num_deleted":"0","num_feature":"9","num_nodes":"7","size_leaf_vector":"1"}},{"base_weights":[-2.5914475E-1,1.470729E-1,-1.4907321E-1],"categories":[],"categories_nodes":[],"categories_segments":[],"categories_sizes":[],"default_left":[0,0,0],"id":78,"left_children":[1,-1,-1],"loss_changes":[3.720585E1,0E0,0E0],"parents":[2147483647,0,0],"right_children":[2,-1,-1],"split_conditions":[8E0,1.470729E-1,-1.4907321E-1],"split_indices":[0,0,0],"split_type":[0,0,0],"sum_hessian":[2.0644461E2,4.9468502E1,1.569761E2],"tree_param":{"num_deleted":"0","num_feature":"9","num_nodes":"3","size_leaf_vector":"1"}},{"base_weights":[3.485582E-1,-1.4423561E-1,4.2021534E-1,1.4949152E-1,-4.356398E-1,-1.4346357E-1,-1.4174624E-2,-1.3655395E-2,8.25803E-3],"categories":[],"categories_nodes":[],"categories_segments":[],"categories_sizes":[],"default_left":[0,0,0,0,0,0,0,0,0],"id":79,"left_children":[1,-1,3,-1,5,-1,7,-1,-1],"loss_changes":[1.9223316E1,0E0,1.9942894E1,0E0,4.4558764E-1,0E0,5.62318E-3,0E0,0E0],"parents":[2147483647,0,0,2,2,4,4,6,6],"right_children":[2,-1,4,-1,6,-1,8,-1,-1],"split_conditions":[8E0,-1.4423561E-1,1.4E1,1.4949152E-1,1.8E1,-1.4346357E-1,1.4E1,-1.3655395E-2,8.25803E-3],"split_indices":[0,0,0,0,0,0,1,0,0],"split_type":[0,0,0,0,0,0,0,0,0],"sum_hessian":[3.1907053E2,2.4921799E1,2.941487E2,2.6993698E2,2.4211744E1,2.18682E1,2.3435438E0,1.2856838E0,1.05786E0],"tree_param":{"num_deleted":"0","num_feature":"9","num_nodes":"9","size_leaf_vector":"1"}},{"base_weights":[-2.7975485E-1,-1.4908817E-1,4.6685794E-1,1.4665857E-1,8.681335E-2,-2.199788E-2,7.736302E-2],"categories":[],"categories_nodes":[],"categories_segments":[],"categories_sizes":[],"default_left":[0,0,0,0,0,0,0],"id":80,"left_children":[1,-1,3,-1,5,-1,-1],"loss_changes":[3.3738556E1,0E0,3.5125256E-1,0E0,1.2280117E-1,0E0,0E0],"parents":[2147483647,0,0,2,2,4,4],"right_children":[2,-1,4,-1,6,-1,-1],"split_conditions":[1.4E1,-1.4908817E-1,1.8E1,1.4665857E-1,1E0,-2.199788E-2,7.736302E-2],"split_indices":[0,0,0,0,2,0,0],"split_type":[0,0,0,0,0,0,0],"sum_hessian":[2.0561555E2,1.5953716E2,4.6078403E1,4.3285896E1,2.792507E0,1.7374021E0,1.055105E0],"tree_param":{"num_deleted":"0","num_feature":"9","num_nodes":"7","size_leaf_vector":"1"}},{"base_weights":[-2.579533E-1,1.4607428E-1,-1.48741E-1],"categories":[],"categories_nodes":[],"categories_segments":[],"categories_sizes":[],"default_left":[0,0,0],"id":81,"left_children":[1,-1,-1],"loss_changes":[2.7605637E1,0E0,0E0],"parents":[2147483647,0,0],"right_children":[2,-1,-1],"split_conditions":[8E0,1.4607428E-1,-1.48741E-1],"split_indices":[0,0,0],"split_type":[0,0,0],"sum_hessian":[1.5345459E2,3.6887623E1,1.1656697E2],"tree_param":{"num_deleted":"0","num_feature":"9","num_nodes":"3","size_leaf_vector":"1"}},{"base_weights":[3.4641865E-1,-1.4237344E-1,4.1810292E-1,1.4928834E-1,-4.1868776E-1,-1.413779E-1,-1.127048E-2,-1.1839901E-2,7.627661E-3],"categories":[],"categories_nodes":[],"categories_segments":[],"categories_sizes":[],"default_left":[0,0,0,0,0,0,0,0,0],"id":82,"left_children":[1,-1,3,-1,5,-1,7,-1,-1],"loss_changes":[1.42387295E1,0E0,1.4844509E1,0E0,4.151652E-1,0E0,4.3849265E-3,0E0,0E0],"parents":[2147483647,0,0,2,2,4,4,6,6],"right_children":[2,-1,4,-1,6,-1,8,-1,-1],"split_conditions":[8E0,-1.4237344E-1,1.4E1,1.4928834E-1,1.8E1,-1.413779E-1,1.4E1,-1.1839901E-2,7.627661E-3],"split_indices":[0,0,0,0,0,0,1,0,0],"split_type":[0,0,0,0,0,0,0,0,0],"sum_hessian":[2.375675E2,1.8625868E1,2.1894164E2,2.0031035E2,1.8631289E1,1.636314E1,2.268149E0,1.239935E0,1.028214E0],"tree_param":{"num_deleted":"0","num_feature":"9","num_nodes":"9","size_leaf_vector":"1"}},{"base_weights":[-2.7719954E-1,-1.4876056E-1,4.570423E-1,1.4552973E-1,7.4541256E-2,-3.4988394E-3,3.3986412E-2],"categories":[],"categories_nodes":[],"categories_segments":[],"categories_sizes":[],"default_left":[0,0,0,0,0,0,0],"id":83,"left_children":[1,-1,3,-1,5,-1,-1],"loss_changes":[2.5009235E1,0E0,3.4954977E-1,0E0,1.3471656E-2,0E0,0E0],"parents":[2147483647,0,0,2,2,4,4],"right_children":[2,-1,4,-1,6,-1,-1],"split_conditions":[1.4E1,-1.4876056E-1,1.8E1,1.4552973E-1,2E0,-3.4988394E-3,3.3986412E-2],"split_indices":[0,0,0,0,3,0,0],"split_type":[0,0,0,0,0,0,0],"sum_hessian":[1.5335498E2,1.1841404E2,3.494094E1,3.2303238E1,2.6377027E0,1.0346988E0,1.603004E0],"tree_param":{"num_deleted":"0","num_feature":"9","num_nodes":"7","size_leaf_vector":"1"}},{"base_weights":[-2.564091E-1,1.4477241E-1,-1.483007E-1],"categories":[],"categories_nodes":[],"categories_segments":[],"categories_sizes":[],"default_left":[0,0,0],"id":84,"left_children":[1,-1,-1],"loss_changes":[2.049058E1,0E0,0E0],"parents":[2147483647,0,0],"right_children":[2,-1,-1],"split_conditions":[8E0,1.4477241E-1,-1.483007E-1],"split_indices":[0,0,0],"split_type":[0,0,0],"sum_hessian":[1.141836E2,2.7558987E1,8.662461E1],"tree_param":{"num_deleted":"0","num_feature":"9","num_nodes":"3","size_leaf_vector":"1"}},{"base_weights":[3.435634E-1,-1.3998531E-1,4.152785E-1,1.4902267E-1,-3.9651826E-1,-1.3871977E-1,-5.160972E-3,-8.898671E-3,7.467179E-3],"categories":[],"categories_nodes":[],"categories_segments":[],"categories_sizes":[],"default_left":[0,0,0,0,0,0,0,0,0],"id":85,"left_children":[1,-1,3,-1,5,-1,7,-1,-1],"loss_changes":[1.0546127E1,0E0,1.1056818E1,0E0,3.9807987E-1,0E0,3.1307274E-3,0E0,0E0],"parents":[2147483647,0,0,2,2,4,4,6,6],"right_children":[2,-1,4,-1,6,-1,8,-1,-1],"split_conditions":[8E0,-1.3998531E-1,1.4E1,1.4902267E-1,1.8E1,-1.3871977E-1,5E0,-8.898671E-3,7.467179E-3],"split_indices":[0,0,0,0,0,0,3,0,0],"split_type":[0,0,0,0,0,0,0,0,0],"sum_hessian":[1.7717479E2,1.3959925E1,1.6321486E2,1.4868268E2,1.4532191E1,1.2282956E1,2.249236E0,1.2461755E0,1.0030605E0],"tree_param":{"num_deleted":"0","num_feature":"9","num_nodes":"9","size_leaf_vector":"1"}},{"base_weights":[-2.73787E-1,-1.4832594E-1,4.436446E-1,1.4406706E-1,6.0221687E-2,-3.7837818E-3,2.8334169E-2],"categories":[],"categories_nodes":[],"categories_segments":[],"categories_sizes":[],"default_left":[0,0,0,0,0,0,0],"id":86,"left_children":[1,-1,3,-1,5,-1,-1],"loss_changes":[1.8530394E1,0E0,3.600726E-1,0E0,1.006286E-2,0E0,0E0],"parents":[2147483647,0,0,2,2,4,4],"right_children":[2,-1,4,-1,6,-1,-1],"split_conditions":[1.4E1,-1.4832594E-1,1.8E1,1.4406706E-1,2E0,-3.7837818E-3,2.8334169E-2],"split_indices":[0,0,0,0,3,0,0],"split_type":[0,0,0,0,0,0,0],"sum_hessian":[1.14681145E2,8.794587E1,2.6735273E1,2.4176361E1,2.558913E0,1.019926E0,1.5389869E0],"tree_param":{"num_deleted":"0","num_feature":"9","num_nodes":"7","size_leaf_vector":"1"}},{"base_weights":[-2.543531E-1,1.4308861E-1,-1.4771697E-1],"categories":[],"categories_nodes":[],"categories_segments":[],"categories_sizes":[],"default_left":[0,0,0],"id":87,"left_children":[1,-1,-1],"loss_changes":[1.5219681E1,0E0,0E0],"parents":[2147483647,0,0],"right_children":[2,-1,-1],"split_conditions":[8E0,1.4308861E-1,-1.4771697E-1],"split_indices":[0,0,0],"split_type":[0,0,0],"sum_hessian":[8.50802E1,2.0646051E1,6.443415E1],"tree_param":{"num_deleted":"0","num_feature":"9","num_nodes":"3","size_leaf_vector":"1"}},{"base_weights":[3.3981043E-1,-1.3696687E-1,4.1156155E-1,1.4867216E-1,-3.7070155E-1,1.1532774E-2,-1.3553073E-1,8.116957E-2,-7.739884E-2],"categories":[],"categories_nodes":[],"categories_segments":[],"categories_sizes":[],"default_left":[0,0,0,0,0,0,0,0,0],"id":88,"left_children":[1,-1,3,-1,5,7,-1,-1,-1],"loss_changes":[7.8114443E0,0E0,8.261778E0,0E0,3.9231837E-1,2.904989E-1,0E0,0E0,0E0],"parents":[2147483647,0,0,2,2,4,4,5,5],"right_children":[2,-1,4,-1,6,8,-1,-1,-1],"split_conditions":[8E0,-1.3696687E-1,1.4E1,1.4867216E-1,1E0,1E0,-1.3553073E-1,8.116957E-2,-7.739884E-2],"split_indices":[0,0,0,0,2,4,0,0,0],"split_type":[0,0,0,0,0,0,0,0,0],"sum_hessian":[1.3241823E2,1.0501281E1,1.2191695E2,1.10424255E2,1.1492689E1,2.1610496E0,9.331639E0,1.1000218E0,1.0610278E0],"tree_param":{"num_deleted":"0","num_feature":"9","num_nodes":"9","size_leaf_vector":"1"}},{"base_weights":[-2.696248E-1,-1.4774917E-1,4.2703226E-1,1.4217536E-1,4.836118E-2,-5.0281156E-3,2.4457896E-2],"categories":[],"categories_nodes":[],"categories_segments":[],"categories_sizes":[],"default_left":[0,0,0,0,0,0,0],"id":89,"left_children":[1,-1,3,-1,5,-1,-1],"loss_changes":[1.37172985E1,0E0,3.6093783E-1,0E0,8.916277E-3,0E0,0E0],"parents":[2147483647,0,0,2,2,4,4],"right_children":[2,-1,4,-1,6,-1,-1],"split_conditions":[1.4E1,-1.4774917E-1,1.8E1,1.4217536E-1,2E0,-5.0281156E-3,2.4457896E-2],"split_indices":[0,0,0,0,3,0,0],"split_type":[0,0,0,0,0,0,0],"sum_hessian":[8.599275E1,6.537215E1,2.0620604E1,1.8124918E1,2.4956868E0,1.0090332E0,1.4866536E0],"tree_param":{"num_deleted":"0","num_feature":"9","num_nodes":"7","size_leaf_vector":"1"}},{"base_weights":[-2.516121E-1,1.409356E-1,-1.4694479E-1],"categories":[],"categories_nodes":[],"categories_segments":[],"categories_sizes":[],"default_left":[0,0,0],"id":90,"left_children":[1,-1,-1],"loss_changes":[1.1315248E1,0E0,0E0],"parents":[2147483647,0,0],"right_children":[2,-1,-1],"split_conditions":[8E0,1.409356E-1,-1.4694479E-1],"split_indices":[0,0,0],"split_type":[0,0,0],"sum_hessian":[6.3508617E1,1.5523549E1,4.7985065E1],"tree_param":{"num_deleted":"0","num_feature":"9","num_nodes":"3","size_leaf_vector":"1"}},{"base_weights":[3.3550426E-1,-1.332217E-1,4.074726E-1,1.48208E-1,-3.4726462E-1,7.5460724E-3,-1.3160968E-1],"categories":[],"categories_nodes":[],"categories_segments":[],"categories_sizes":[],"default_left":[0,0,0,0,0,0,0],"id":91,"left_children":[1,-1,3,-1,5,-1,-1],"loss_changes":[5.795824E0,0E0,6.1907644E0,0E0,3.5383344E-1,0E0,0E0],"parents":[2147483647,0,0,2,2,4,4],"right_children":[2,-1,4,-1,6,-1,-1],"split_conditions":[8E0,-1.332217E-1,1.4E1,1.48208E-1,1E0,7.5460724E-3,-1.3160968E-1],"split_indices":[0,0,0,0,2,0,0],"split_type":[0,0,0,0,0,0,0],"sum_hessian":[9.907829E1,7.936631E0,9.114166E1,8.2074684E1,9.066979E0,1.9301679E0,7.1368113E0],"tree_param":{"num_deleted":"0","num_feature":"9","num_nodes":"7","size_leaf_vector":"1"}},{"base_weights":[-2.6484084E-1,-1.4698544E-1,4.109439E-1,1.3979517E-1,3.5984114E-2,-9.0193754E-4,1.6498E-2],"categories":[],"categories_nodes":[],"categories_segments":[],"categories_sizes":[],"default_left":[0,0,0,0,0,0,0],"id":92,"left_children":[1,-1,3,-1,5,-1,-1],"loss_changes":[1.0177317E1,0E0,3.3262634E-1,0E0,2.574693E-3,0E0,0E0],"parents":[2147483647,0,0,2,2,4,4],"right_children":[2,-1,4,-1,6,-1,-1],"split_conditions":[1.4E1,-1.4698544E-1,1.8E1,1.3979517E-1,1.1E1,-9.0193754E-4,1.6498E-2],"split_indices":[0,0,0,0,1,0,0],"split_type":[0,0,0,0,0,0,0],"sum_hessian":[6.457691E1,4.8647076E1,1.5929837E1,1.3679133E1,2.2507038E0,1.0135705E0,1.2371331E0],"tree_param":{"num_deleted":"0","num_feature":"9","num_nodes":"7","size_leaf_vector":"1"}},{"base_weights":[-2.479766E-1,1.3822648E-1,-1.4592859E-1],"categories":[],"categories_nodes":[],"categories_segments":[],"categories_sizes":[],"default_left":[0,0,0],"id":93,"left_children":[1,-1,-1],"loss_changes":[8.424747E0,0E0,0E0],"parents":[2147483647,0,0],"right_children":[2,-1,-1],"split_conditions":[8E0,1.3822648E-1,-1.4592859E-1],"split_indices":[0,0,0],"split_type":[0,0,0],"sum_hessian":[4.752484E1,1.1729608E1,3.5795235E1],"tree_param":{"num_deleted":"0","num_feature":"9","num_nodes":"3","size_leaf_vector":"1"}},{"base_weights":[3.2977715E-1,-1.2867905E-1,4.0176186E-1,1.4759794E-1,-3.166979E-1,1.0542542E-2,-1.2696652E-1],"categories":[],"categories_nodes":[],"categories_segments":[],"categories_sizes":[],"default_left":[0,0,0,0,0,0,0],"id":94,"left_children":[1,-1,3,-1,5,-1,-1],"loss_changes":[4.300539E0,0E0,4.6647787E0,0E0,3.2853425E-1,0E0,0E0],"parents":[2147483647,0,0,2,2,4,4],"right_children":[2,-1,4,-1,6,-1,-1],"split_conditions":[8E0,-1.2867905E-1,1.4E1,1.4759794E-1,1E0,1.0542542E-2,-1.2696652E-1],"split_indices":[0,0,0,0,2,0,0],"split_type":[0,0,0,0,0,0,0],"sum_hessian":[7.4587036E1,6.033743E0,6.855329E1,6.1184372E1,7.3689218E0,1.8682723E0,5.5006495E0],"tree_param":{"num_deleted":"0","num_feature":"9","num_nodes":"7","size_leaf_vector":"1"}},{"base_weights":[-2.584193E-1,-1.4597869E-1,3.8856772E-1,1.3684916E-1,1.958461E-2,1.286759E-4,8.57718E-3],"categories":[],"categories_nodes":[],"categories_segments":[],"categories_sizes":[],"default_left":[0,0,0,0,0,0,0],"id":95,"left_children":[1,-1,3,-1,5,-1,-1],"loss_changes":[7.539875E0,0E0,3.2873535E-1,0E0,5.2961044E-4,0E0,0E0],"parents":[2147483647,0,0,2,2,4,4],"right_children":[2,-1,4,-1,6,-1,-1],"split_conditions":[1.4E1,-1.4597869E-1,1.8E1,1.3684916E-1,1.2E1,1.286759E-4,8.57718E-3],"split_indices":[0,0,0,0,1,0,0],"split_type":[0,0,0,0,0,0,0],"sum_hessian":[4.8793022E1,3.625477E1,1.2538255E1,1.0397249E1,2.1410055E0,1.0197113E0,1.1212941E0],"tree_param":{"num_deleted":"0","num_feature":"9","num_nodes":"7","size_leaf_vector":"1"}},{"base_weights":[-2.4361245E-1,1.3485359E-1,-1.4460012E-1],"categories":[],"categories_nodes":[],"categories_segments":[],"categories_sizes":[],"default_left":[0,0,0],"id":96,"left_children":[1,-1,-1],"loss_changes":[6.27357E0,0E0,0E0],"parents":[2147483647,0,0],"right_children":[2,-1,-1],"split_conditions":[8E0,1.3485359E-1,-1.4460012E-1],"split_indices":[0,0,0],"split_type":[0,0,0],"sum_hessian":[3.565686E1,8.8984785E0,2.6758383E1],"tree_param":{"num_deleted":"0","num_feature":"9","num_nodes":"3","size_leaf_vector":"1"}},{"base_weights":[3.2233268E-1,-1.2331517E-1,3.9441127E-1,1.4679018E-1,-2.8500023E-1,1.2647723E-2,-1.21620245E-1],"categories":[],"categories_nodes":[],"categories_segments":[],"categories_sizes":[],"default_left":[0,0,0,0,0,0,0],"id":97,"left_children":[1,-1,3,-1,5,-1,-1],"loss_changes":[3.1929226E0,0E0,3.5379028E0,0E0,2.9644692E-1,0E0,0E0],"parents":[2147483647,0,0,2,2,4,4],"right_children":[2,-1,4,-1,6,-1,-1],"split_conditions":[8E0,-1.2331517E-1,1.4E1,1.4679018E-1,1E0,1.2647723E-2,-1.21620245E-1],"split_indices":[0,0,0,0,2,0,0],"split_type":[0,0,0,0,0,0,0],"sum_hessian":[5.6335033E1,4.6204267E0,5.1714607E1,4.5622593E1,6.0920143E0,1.8136648E0,4.27835E0],"tree_param":{"num_deleted":"0","num_feature":"9","num_nodes":"7","size_leaf_vector":"1"}},{"base_weights":[-2.501884E-1,-1.446603E-1,3.6359006E-1,1.3328637E-1,2.0544403E-3],"categories":[],"categories_nodes":[],"categories_segments":[],"categories_sizes":[],"default_left":[0,0,0,0,0],"id":98,"left_children":[1,-1,3,-1,-1],"loss_changes":[5.5996385E0,0E0,3.1417584E-1,0E0,0E0],"parents":[2147483647,0,0,2,2],"right_children":[2,-1,4,-1,-1],"split_conditions":[1.4E1,-1.446603E-1,1.8E1,1.3328637E-1,2.0544403E-3],"split_indices":[0,0,0,0,0],"split_type":[0,0,0,0,0],"sum_hessian":[3.7090942E1,2.7071934E1,1.0019008E1,7.970594E0,2.0484142E0],"tree_param":{"num_deleted":"0","num_feature":"9","num_nodes":"5","size_leaf_vector":"1"}},{"base_weights":[-2.3797235E-1,1.3077262E-1,-1.4287941E-1],"categories":[],"categories_nodes":[],"categories_segments":[],"categories_sizes":[],"default_left":[0,0,0],"id":99,"left_children":[1,-1,-1],"loss_changes":[4.680767E0,0E0,0E0],"parents":[2147483647,0,0],"right_children":[2,-1,-1],"split_conditions":[8E0,1.3077262E-1,-1.4287941E-1],"split_indices":[0,0,0],"split_type":[0,0,0],"sum_hessian":[2.6856144E1,6.7991424E0,2.0057001E1],"tree_param":{"num_deleted":"0","num_feature":"9","num_nodes":"3","size_leaf_vector":"1"}},{"base_weights":[3.131749E-1,-1.17174014E-1,3.8530546E-1,1.4573337E-1,-2.5328103E-1,1.4064387E-2,-1.1564945E-1],"categories":[],"categories_nodes":[],"categories_segments":[],"categories_sizes":[],"default_left":[0,0,0,0,0,0,0],"id":100,"left_children":[1,-1,3,-1,5,-1,-1],"loss_changes":[2.374261E0,0E0,2.7047439E0,0E0,2.6125434E-1,0E0,0E0],"parents":[2147483647,0,0,2,2,4,4],"right_children":[2,-1,4,-1,6,-1,-1],"split_conditions":[8E0,-1.17174014E-1,1.4E1,1.4573337E-1,1E0,1.4064387E-2,-1.1564945E-1],"split_indices":[0,0,0,0,2,0,0],"split_type":[0,0,0,0,0,0,0],"sum_hessian":[4.280753E1,3.5691888E0,3.9238342E1,3.411079E1,5.1275525E0,1.7653152E0,3.362237E0],"tree_param":{"num_deleted":"0","num_feature":"9","num_nodes":"7","size_leaf_vector":"1"}},{"base_weights":[-2.4078219E-1,-1.4294936E-1,3.3604217E-1,1.2899409E-1,-9.0724137E-4],"categories":[],"categories_nodes":[],"categories_segments":[],"categories_sizes":[],"default_left":[0,0,0,0,0],"id":101,"left_children":[1,-1,3,-1,-1],"loss_changes":[4.1540327E0,0E0,2.9139543E-1,0E0,0E0],"parents":[2147483647,0,0,2,2],"right_children":[2,-1,4,-1,-1],"split_conditions":[1.4E1,-1.4294936E-1,1.8E1,1.2899409E-1,-9.0724137E-4],"split_indices":[0,0,0,0,0],"split_type":[0,0,0,0,0],"sum_hessian":[2.8374203E1,2.0266396E1,8.107807E0,6.138899E0,1.9689087E0],"tree_param":{"num_deleted":"0","num_feature":"9","num_nodes":"5","size_leaf_vector":"1"}},{"base_weights":[-2.3087783E-1,1.2596197E-1,-1.4067727E-1],"categories":[],"categories_nodes":[],"categories_segments":[],"categories_sizes":[],"default_left":[0,0,0],"id":102,"left_children":[1,-1,-1],"loss_changes":[3.5003138E0,0E0,0E0],"parents":[2147483647,0,0],"right_children":[2,-1,-1],"split_conditions":[8E0,1.2596197E-1,-1.4067727E-1],"split_indices":[0,0,0],"split_type":[0,0,0],"sum_hessian":[2.032495E1,5.23905E0,1.5085898E1],"tree_param":{"num_deleted":"0","num_feature":"9","num_nodes":"3","size_leaf_vector":"1"}},{"base_weights":[3.0137223E-1,-1.103764E-1,3.7367696E-1,1.4433877E-1,-2.22884E-1,1.484738E-2,-1.0920193E-1],"categories":[],"categories_nodes":[],"categories_segments":[],"categories_sizes":[],"default_left":[0,0,0,0,0,0,0],"id":103,"left_children":[1,-1,3,-1,5,-1,-1],"loss_changes":[1.7662759E0,0E0,2.0861945E0,0E0,2.2540352E-1,0E0,0E0],"parents":[2147483647,0,0,2,2,4,4],"right_children":[2,-1,4,-1,6,-1,-1],"split_conditions":[8E0,-1.103764E-1,1.4E1,1.4433877E-1,1E0,1.484738E-2,-1.0920193E-1],"split_indices":[0,0,0,0,2,0,0],"split_type":[0,0,0,0,0,0,0],"sum_hessian":[3.2657547E1,2.785441E0,2.9872105E1,2.5476742E1,4.3953624E0,1.7216913E0,2.673671E0],"tree_param":{"num_deleted":"0","num_feature":"9","num_nodes":"7","size_leaf_vector":"1"}},{"base_weights":[-2.2910592E-1,-1.4075498E-1,3.0748963E-1,-3.4530435E-3,1.24126635E-1],"categories":[],"categories_nodes":[],"categories_segments":[],"categories_sizes":[],"default_left":[0,0,0,0,0],"id":104,"left_children":[1,-1,3,-1,-1],"loss_changes":[3.0951118E0,0E0,2.6525903E-1,0E0,0E0],"parents":[2147483647,0,0,2,2],"right_children":[2,-1,4,-1,-1],"split_conditions":[1.4E1,-1.4075498E-1,1E0,-3.4530435E-3,1.24126635E-1],"split_indices":[0,0,2,0,0],"split_type":[0,0,0,0,0],"sum_hessian":[2.190593E1,1.5221385E1,6.6845446E0,1.8931564E0,4.791388E0],"tree_param":{"num_deleted":"0","num_feature":"9","num_nodes":"5","size_leaf_vector":"1"}},{"base_weights":[-2.2196302E-1,1.20495275E-1,-1.3790627E-1],"categories":[],"categories_nodes":[],"categories_segments":[],"categories_sizes":[],"default_left":[0,0,0],"id":105,"left_children":[1,-1,-1],"loss_changes":[2.628481E0,0E0,0E0],"parents":[2147483647,0,0],"right_children":[2,-1,-1],"split_conditions":[8E0,1.20495275E-1,-1.3790627E-1],"split_indices":[0,0,0],"split_type":[0,0,0],"sum_hessian":[1.54848175E1,4.0834064E0,1.1401411E1],"tree_param":{"num_deleted":"0","num_feature":"9","num_nodes":"3","size_leaf_vector":"1"}},{"base_weights":[2.880661E-1,-1.03114225E-1,3.6021328E-1,1.4257278E-1,-1.9466746E-1,-1.0218878E-1,1.419126E-2],"categories":[],"categories_nodes":[],"categories_segments":[],"categories_sizes":[],"default_left":[0,0,0,0,0,0,0],"id":106,"left_children":[1,-1,3,-1,5,-1,-1],"loss_changes":[1.3189924E0,0E0,1.6257668E0,0E0,1.8684909E-1,0E0,0E0],"parents":[2147483647,0,0,2,2,4,4],"right_children":[2,-1,4,-1,6,-1,-1],"split_conditions":[8E0,-1.03114225E-1,1.4E1,1.4257278E-1,1.8E1,-1.0218878E-1,1.419126E-2],"split_indices":[0,0,0,0,0,0,0],"split_type":[0,0,0,0,0,0,0],"sum_hessian":[2.522097E1,2.1991684E0,2.3021801E1,1.918764E1,3.8341615E0,2.1372244E0,1.696937E0],"tree_param":{"num_deleted":"0","num_feature":"9","num_nodes":"7","size_leaf_vector":"1"}},{"base_weights":[-2.1559371E-1,-1.3798237E-1,2.7862442E-1,1.1882227E-1,-6.9329306E-3],"categories":[],"categories_nodes":[],"categories_segments":[],"categories_sizes":[],"default_left":[0,0,0,0,0],"id":107,"left_children":[1,-1,3,-1,-1],"loss_changes":[2.3123097E0,0E0,2.4327981E-1,0E0,0E0],"parents":[2147483647,0,0,2,2],"right_children":[2,-1,4,-1,-1],"split_conditions":[1.4E1,-1.3798237E-1,1.8E1,1.1882227E-1,-6.9329306E-3],"split_indices":[0,0,0,0,0],"split_type":[0,0,0,0,0],"sum_hessian":[1.708663E1,1.1480088E1,5.6065407E0,3.8106058E0,1.7959349E0],"tree_param":{"num_deleted":"0","num_feature":"9","num_nodes":"5","size_leaf_vector":"1"}},{"base_weights":[-2.1133138E-1,1.1442913E-1,-1.344709E-1],"categories":[],"categories_nodes":[],"categories_segments":[],"categories_sizes":[],"default_left":[0,0,0],"id":108,"left_children":[1,-1,-1],"loss_changes":[1.979006E0,0E0,0E0],"parents":[2147483647,0,0],"right_children":[2,-1,-1],"split_conditions":[8E0,1.1442913E-1,-1.344709E-1],"split_indices":[0,0,0],"split_type":[0,0,0],"sum_hessian":[1.1875157E1,3.2166626E0,8.658495E0],"tree_param":{"num_deleted":"0","num_feature":"9","num_nodes":"3","size_leaf_vector":"1"}},{"base_weights":[2.7208692E-1,-9.562423E-2,3.4391478E-1,1.4032324E-1,-1.6976318E-1,1.4769865E-2,-9.560334E-2],"categories":[],"categories_nodes":[],"categories_segments":[],"categories_sizes":[],"default_left":[0,0,0,0,0,0,0],"id":109,"left_children":[1,-1,3,-1,5,-1,-1],"loss_changes":[9.864545E-1,0E0,1.2817814E0,0E0,1.5935649E-1,0E0,0E0],"parents":[2147483647,0,0,2,2,4,4],"right_children":[2,-1,4,-1,6,-1,-1],"split_conditions":[8E0,-9.562423E-2,1.4E1,1.4032324E-1,1E0,1.4769865E-2,-9.560334E-2],"split_indices":[0,0,0,0,2,0,0],"split_type":[0,0,0,0,0,0,0],"sum_hessian":[1.9661316E1,1.7585285E0,1.7902786E1,1.4497404E1,3.4053824E0,1.6492941E0,1.7560883E0],"tree_param":{"num_deleted":"0","num_feature":"9","num_nodes":"7","size_leaf_vector":"1"}},{"base_weights":[-1.9977923E-1,-1.3454282E-1,2.510173E-1,-6.3890675E-3,1.12778015E-1],"categories":[],"categories_nodes":[],"categories_segments":[],"categories_sizes":[],"default_left":[0,0,0,0,0],"id":110,"left_children":[1,-1,3,-1,-1],"loss_changes":[1.7381914E0,0E0,2.051698E-1,0E0,0E0],"parents":[2147483647,0,0,2,2],"right_children":[2,-1,4,-1,-1],"split_conditions":[1.4E1,-1.3454282E-1,1E0,-6.3890675E-3,1.12778015E-1],"split_indices":[0,0,2,0,0],"split_type":[0,0,0,0,0],"sum_hessian":[1.3499972E1,8.703529E0,4.796443E0,1.7691131E0,3.0273297E0],"tree_param":{"num_deleted":"0","num_feature":"9","num_nodes":"5","size_leaf_vector":"1"}},{"base_weights":[-1.9934563E-1,1.0788798E-1,-1.3032092E-1],"categories":[],"categories_nodes":[],"categories_segments":[],"categories_sizes":[],"default_left":[0,0,0],"id":111,"left_children":[1,-1,-1],"loss_changes":[1.4942676E0,0E0,0E0],"parents":[2147483647,0,0],"right_children":[2,-1,-1],"split_conditions":[8E0,1.0788798E-1,-1.3032092E-1],"split_indices":[0,0,0],"split_type":[0,0,0],"sum_hessian":[9.183719E0,2.5617838E0,6.621935E0],"tree_param":{"num_deleted":"0","num_feature":"9","num_nodes":"3","size_leaf_vector":"1"}},{"base_weights":[2.5349474E-1,-8.81545E-2,3.2485795E-1,1.3748051E-1,-1.4761059E-1,-8.8503994E-2,1.3541394E-2],"categories":[],"categories_nodes":[],"categories_segments":[],"categories_sizes":[],"default_left":[0,0,0,0,0,0,0],"id":112,"left_children":[1,-1,3,-1,5,-1,-1],"loss_changes":[7.3898804E-1,0E0,1.0162777E0,0E0,1.2895937E-1,0E0,0E0],"parents":[2147483647,0,0,2,2,4,4],"right_children":[2,-1,4,-1,6,-1,-1],"split_conditions":[8E0,-8.81545E-2,1.4E1,1.3748051E-1,1.8E1,-8.8503994E-2,1.3541394E-2],"split_indices":[0,0,0,0,0,0,0],"split_type":[0,0,0,0,0,0,0],"sum_hessian":[1.547533E1,1.425368E0,1.4049962E1,1.0979694E1,3.070268E0,1.4391391E0,1.6311289E0],"tree_param":{"num_deleted":"0","num_feature":"9","num_nodes":"7","size_leaf_vector":"1"}},{"base_weights":[-1.83364E-1,-1.3036966E-1,2.2404167E-1,1.0663852E-1,-8.129409E-3],"categories":[],"categories_nodes":[],"categories_segments":[],"categories_sizes":[],"default_left":[0,0,0,0,0],"id":113,"left_children":[1,-1,3,-1,-1],"loss_changes":[1.3052174E0,0E0,1.7998236E-1,0E0,0E0],"parents":[2147483647,0,0,2,2],"right_children":[2,-1,4,-1,-1],"split_conditions":[1.4E1,-1.3036966E-1,1.8E1,1.0663852E-1,-8.129409E-3],"split_indices":[0,0,0,0,0],"split_type":[0,0,0,0,0],"sum_hessian":[1.0802285E1,6.640912E0,4.161373E0,2.4591293E0,1.7022436E0],"tree_param":{"num_deleted":"0","num_feature":"9","num_nodes":"5","size_leaf_vector":"1"}},{"base_weights":[-1.8624634E-1,1.00997545E-1,-1.2541634E-1],"categories":[],"categories_nodes":[],"categories_segments":[],"categories_sizes":[],"default_left":[0,0,0],"id":114,"left_children":[1,-1,-1],"loss_changes":[1.1301373E0,0E0,0E0],"parents":[2147483647,0,0],"right_children":[2,-1,-1],"split_conditions":[8E0,1.00997545E-1,-1.2541634E-1],"split_indices":[0,0,0],"split_type":[0,0,0],"sum_hessian":[7.162417E0,2.0609903E0,5.1014266E0],"tree_param":{"num_deleted":"0","num_feature":"9","num_nodes":"3","size_leaf_vector":"1"}},{"base_weights":[2.3377334E-1,3.421981E-1,-1.2896857E-1,-8.092792E-2,1.3407998E-1,1.3563844E-2,-8.2368225E-2],"categories":[],"categories_nodes":[],"categories_segments":[],"categories_sizes":[],"default_left":[0,0,0,0,0,0,0],"id":115,"left_children":[1,3,5,-1,-1,-1,-1],"loss_changes":[5.713033E-1,7.99505E-1,1.0905182E-1,0E0,0E0,0E0,0E0],"parents":[2147483647,0,0,1,1,2,2],"right_children":[2,4,6,-1,-1,-1,-1],"split_conditions":[1.4E1,8E0,1E0,-8.092792E-2,1.3407998E-1,1.3563844E-2,-8.2368225E-2],"split_indices":[0,0,2,0,0,0,0],"split_type":[0,0,0,0,0,0,0],"sum_hessian":[1.2403705E1,9.592969E0,2.8107357E0,1.1716262E0,8.421343E0,1.5936294E0,1.2171063E0],"tree_param":{"num_deleted":"0","num_feature":"9","num_nodes":"7","size_leaf_vector":"1"}},{"base_weights":[-1.6534933E-1,-1.2543687E-1,1.997676E-1,-7.3642237E-3,1.0003975E-1],"categories":[],"categories_nodes":[],"categories_segments":[],"categories_sizes":[],"default_left":[0,0,0,0,0],"id":116,"left_children":[1,-1,3,-1,-1],"loss_changes":[9.867928E-1,0E0,1.4855601E-1,0E0,0E0],"parents":[2147483647,0,0,2,2],"right_children":[2,-1,4,-1,-1],"split_conditions":[1.4E1,-1.2543687E-1,1E0,-7.3642237E-3,1.0003975E-1],"split_indices":[0,0,2,0,0],"split_type":[0,0,0,0,0],"sum_hessian":[8.787049E0,5.1065598E0,3.6804895E0,1.6793393E0,2.0011504E0],"tree_param":{"num_deleted":"0","num_feature":"9","num_nodes":"5","size_leaf_vector":"1"}},{"base_weights":[-1.7058347E-1,9.4342865E-2,-1.19809434E-1],"categories":[],"categories_nodes":[],"categories_segments":[],"categories_sizes":[],"default_left":[0,0,0],"id":117,"left_children":[1,-1,-1],"loss_changes":[8.650416E-1,0E0,0E0],"parents":[2147483647,0,0],"right_children":[2,-1,-1],"split_conditions":[8E0,9.4342865E-2,-1.19809434E-1],"split_indices":[0,0,0],"split_type":[0,0,0],"sum_hessian":[5.663367E0,1.6950239E0,3.9683428E0],"tree_param":{"num_deleted":"0","num_feature":"9","num_nodes":"3","size_leaf_vector":"1"}},{"base_weights":[2.1255928E-1,3.258439E-1,-1.12971485E-1,7.144486E-2,1.2513952E-1,-7.584475E-2,1.2119043E-2,5.7025716E-2,-1.6636176E-2],"categories":[],"categories_nodes":[],"categories_segments":[],"categories_sizes":[],"default_left":[0,0,0,0,0,0,0,0,0],"id":118,"left_children":[1,3,5,7,-1,-1,-1,-1,-1],"loss_changes":[4.4552863E-1,1.6711783E-1,8.750528E-2,6.241978E-2,0E0,0E0,0E0,0E0,0E0],"parents":[2147483647,0,0,1,1,2,2,3,3],"right_children":[2,4,6,8,-1,-1,-1,-1,-1],"split_conditions":[1.4E1,9E0,1.8E1,6.36E-1,1.2513952E-1,-7.584475E-2,1.2119043E-2,5.7025716E-2,-1.6636176E-2],"split_indices":[0,0,0,5,0,0,0,0,0],"split_type":[0,0,0,0,0,0,0,0,0],"sum_hessian":[1.00830765E1,7.4793153E0,2.6037617E0,2.445864E0,5.033451E0,1.0227629E0,1.5809988E0,1.0067225E0,1.4391416E0],"tree_param":{"num_deleted":"0","num_feature":"9","num_nodes":"9","size_leaf_vector":"1"}},{"base_weights":[-1.4702891E-1,-1.1977411E-1,1.7781697E-1,9.3864545E-2,-8.021143E-3],"categories":[],"categories_nodes":[],"categories_segments":[],"categories_sizes":[],"default_left":[0,0,0,0,0],"id":119,"left_children":[1,-1,3,-1,-1],"loss_changes":[7.4842453E-1,0E0,1.2732261E-1,0E0,0E0],"parents":[2147483647,0,0,2,2],"right_children":[2,-1,4,-1,-1],"split_conditions":[1.4E1,-1.1977411E-1,1.8E1,9.3864545E-2,-8.021143E-3],"split_indices":[0,0,0,0,0],"split_type":[0,0,0,0,0],"sum_hessian":[7.268217E0,3.9625576E0,3.3056598E0,1.6720463E0,1.6336135E0],"tree_param":{"num_deleted":"0","num_feature":"9","num_nodes":"5","size_leaf_vector":"1"}},{"base_weights":[-1.5370275E-1,8.8882126E-2,-1.1419247E-1],"categories":[],"categories_nodes":[],"categories_segments":[],"categories_sizes":[],"default_left":[0,0,0],"id":120,"left_children":[1,-1,-1],"loss_changes":[6.890464E-1,0E0,0E0],"parents":[2147483647,0,0],"right_children":[2,-1,-1],"split_conditions":[8E0,8.8882126E-2,-1.1419247E-1],"split_indices":[0,0,0],"split_type":[0,0,0],"sum_hessian":[4.643249E0,1.4542415E0,3.1890073E0],"tree_param":{"num_deleted":"0","num_feature":"9","num_nodes":"3","size_leaf_vector":"1"}},{"base_weights":[1.9149153E-1,3.055547E-1,-2.9958982E-2,6.0987864E-2,1.1976335E-1,-4.484595E-3,3.32962E-2],"categories":[],"categories_nodes":[],"categories_segments":[],"categories_sizes":[],"default_left":[0,0,0,0,0,0,0],"id":121,"left_children":[1,3,-1,5,-1,-1,-1],"loss_changes":[3.47905E-1,1.3850576E-1,0E0,1.36155095E-2,0E0,0E0,0E0],"parents":[2147483647,0,0,1,1,3,3],"right_children":[2,4,-1,6,-1,-1,-1],"split_conditions":[1.4E1,9E0,-2.9958982E-2,2.94E-1,1.1976335E-1,-4.484595E-3,3.32962E-2],"split_indices":[0,0,0,7,0,0,0],"split_type":[0,0,0,0,0,0,0],"sum_hessian":[8.55053E0,6.109839E0,2.440692E0,2.149084E0,3.9607546E0,1.1315583E0,1.0175259E0],"tree_param":{"num_deleted":"0","num_feature":"9","num_nodes":"7","size_leaf_vector":"1"}},{"base_weights":[-1.3192567E-1,-1.14101924E-1,1.5913247E-1,-7.1580545E-3,8.76169E-2],"categories":[],"categories_nodes":[],"categories_segments":[],"categories_sizes":[],"default_left":[0,0,0,0,0],"id":122,"left_children":[1,-1,3,-1,-1],"loss_changes":[5.8095896E-1,0E0,1.0473959E-1,0E0,0E0],"parents":[2147483647,0,0,2,2],"right_children":[2,-1,4,-1,-1],"split_conditions":[1.4E1,-1.14101924E-1,1E0,-7.1580545E-3,8.76169E-2],"split_indices":[0,0,2,0,0],"split_type":[0,0,0,0,0],"sum_hessian":[6.1979733E0,3.1784565E0,3.0195167E0,1.6157101E0,1.4038067E0],"tree_param":{"num_deleted":"0","num_feature":"9","num_nodes":"5","size_leaf_vector":"1"}},{"base_weights":[-1.3432695E-1,8.4406056E-2,-1.08327776E-1],"categories":[],"categories_nodes":[],"categories_segments":[],"categories_sizes":[],"default_left":[0,0,0],"id":123,"left_children":[1,-1,-1],"loss_changes":[5.621835E-1,0E0,0E0],"parents":[2147483647,0,0],"right_children":[2,-1,-1],"split_conditions":[8E0,8.4406056E-2,-1.08327776E-1],"split_indices":[0,0,0],"split_type":[0,0,0],"sum_hessian":[3.8862598E0,1.286773E0,2.5994868E0],"tree_param":{"num_deleted":"0","num_feature":"9","num_nodes":"3","size_leaf_vector":"1"}},{"base_weights":[1.7113122E-1,2.831031E-1,-8.278254E-2,1.5096866E-2,1.13730095E-1,-7.7619613E-3,-2.884618E-2],"categories":[],"categories_nodes":[],"categories_segments":[],"categories_sizes":[],"default_left":[0,0,0,0,0,0,0],"id":124,"left_children":[1,3,5,-1,-1,-1,-1],"loss_changes":[2.6232678E-1,1.1628017E-1,5.7695433E-5,0E0,0E0,0E0,0E0],"parents":[2147483647,0,0,1,1,2,2],"right_children":[2,4,6,-1,-1,-1,-1],"split_conditions":[1.4E1,9E0,7E0,1.5096866E-2,1.13730095E-1,-7.7619613E-3,-2.884618E-2],"split_indices":[0,0,1,0,0,0,0],"split_type":[0,0,0,0,0,0,0],"sum_hessian":[7.402418E0,5.057281E0,2.3451371E0,1.9216796E0,3.1356013E0,1.0045763E0,1.3405609E0],"tree_param":{"num_deleted":"0","num_feature":"9","num_nodes":"7","size_leaf_vector":"1"}},{"base_weights":[-1.2087484E-1,-1.0814902E-1,1.358596E-1,8.221945E-2,-1.0148727E-2],"categories":[],"categories_nodes":[],"categories_segments":[],"categories_sizes":[],"default_left":[0,0,0,0,0],"id":125,"left_children":[1,-1,3,-1,-1],"loss_changes":[4.4270986E-1,0E0,9.876464E-2,0E0,0E0],"parents":[2147483647,0,0,2,2],"right_children":[2,-1,4,-1,-1],"split_conditions":[1.4E1,-1.0814902E-1,1.8E1,8.221945E-2,-1.0148727E-2],"split_indices":[0,0,0,0,0],"split_type":[0,0,0,0,0],"sum_hessian":[5.4001637E0,2.5841227E0,2.816041E0,1.2129962E0,1.6030449E0],"tree_param":{"num_deleted":"0","num_feature":"9","num_nodes":"5","size_leaf_vector":"1"}},{"base_weights":[-1.158348E-1,8.022544E-2,-1.0230024E-1],"categories":[],"categories_nodes":[],"categories_segments":[],"categories_sizes":[],"default_left":[0,0,0],"id":126,"left_children":[1,-1,-1],"loss_changes":[4.6177828E-1,0E0,0E0],"parents":[2147483647,0,0],"right_children":[2,-1,-1],"split_conditions":[8E0,8.022544E-2,-1.0230024E-1],"split_indices":[0,0,0],"split_type":[0,0,0],"sum_hessian":[3.294412E0,1.1497627E0,2.144649E0],"tree_param":{"num_deleted":"0","num_feature":"9","num_nodes":"3","size_leaf_vector":"1"}},{"base_weights":[1.495421E-1,2.588492E-1,-2.1270016E-2,1.2451064E-2,1.0684084E-1],"categories":[],"categories_nodes":[],"categories_segments":[],"categories_sizes":[],"default_left":[0,0,0,0,0],"id":127,"left_children":[1,3,-1,-1,-1],"loss_changes":[1.9882776E-1,9.5639914E-2,0E0,0E0,0E0],"parents":[2147483647,0,0,1,1],"right_children":[2,4,-1,-1,-1],"split_conditions":[1.4E1,9E0,-2.1270016E-2,1.2451064E-2,1.0684084E-1],"split_indices":[0,0,0,0,0],"split_type":[0,0,0,0,0],"sum_hessian":[6.48988E0,4.222105E0,2.2677748E0,1.746628E0,2.475477E0],"tree_param":{"num_deleted":"0","num_feature":"9","num_nodes":"5","size_leaf_vector":"1"}},{"base_weights":[-1.09003656E-1,-1.0203515E-1,1.1830805E-1,-1.2064942E-2,7.7676214E-2],"categories":[],"categories_nodes":[],"categories_segments":[],"categories_sizes":[],"default_left":[0,0,0,0,0],"id":128,"left_children":[1,-1,3,-1,-1],"loss_changes":[3.4422553E-1,0E0,9.197657E-2,0E0,0E0],"parents":[2147483647,0,0,2,2],"right_children":[2,-1,4,-1,-1],"split_conditions":[1.4E1,-1.0203515E-1,1E0,-1.2064942E-2,7.7676214E-2],"split_indices":[0,0,2,0,0],"split_type":[0,0,0,0,0],"sum_hessian":[4.786391E0,2.1272764E0,2.6591141E0,1.5855645E0,1.0735497E0],"tree_param":{"num_deleted":"0","num_feature":"9","num_nodes":"5","size_leaf_vector":"1"}},{"base_weights":[-9.921956E-2,7.6261185E-2,-9.631041E-2],"categories":[],"categories_nodes":[],"categories_segments":[],"categories_sizes":[],"default_left":[0,0,0],"id":129,"left_children":[1,-1,-1],"loss_changes":[3.817044E-1,0E0,0E0],"parents":[2147483647,0,0],"right_children":[2,-1,-1],"split_conditions":[8E0,7.6261185E-2,-9.631041E-2],"split_indices":[0,0,0],"split_type":[0,0,0],"sum_hessian":[2.8280165E0,1.0341933E0,1.7938232E0],"tree_param":{"num_deleted":"0","num_feature":"9","num_nodes":"3","size_leaf_vector":"1"}},{"base_weights":[1.3523053E-1,2.4009517E-1,-1.7851554E-2,9.947961E-3,1.0102709E-1],"categories":[],"categories_nodes":[],"categories_segments":[],"categories_sizes":[],"default_left":[0,0,0,0,0],"id":130,"left_children":[1,3,-1,-1,-1],"loss_changes":[1.5425931E-1,8.192301E-2,0E0,0E0,0E0],"parents":[2147483647,0,0,1,1],"right_children":[2,4,-1,-1,-1],"split_conditions":[1.4E1,9E0,-1.7851554E-2,9.947961E-3,1.0102709E-1],"split_indices":[0,0,0,0,0],"split_type":[0,0,0,0,0],"sum_hessian":[5.854375E0,3.6538556E0,2.2005193E0,1.5909568E0,2.0628986E0],"tree_param":{"num_deleted":"0","num_feature":"9","num_nodes":"5","size_leaf_vector":"1"}},{"base_weights":[-9.866714E-2,-9.593125E-2,1.0271975E-1,3.7323706E-2,7.239578E-3],"categories":[],"categories_nodes":[],"categories_segments":[],"categories_sizes":[],"default_left":[0,0,0,0,0],"id":131,"left_children":[1,-1,3,-1,-1],"loss_changes":[2.6928824E-1,0E0,3.025405E-3,0E0,0E0],"parents":[2147483647,0,0,2,2],"right_children":[2,-1,4,-1,-1],"split_conditions":[1.4E1,-9.593125E-2,6.15E-1,3.7323706E-2,7.239578E-3],"split_indices":[0,0,5,0,0],"split_type":[0,0,0,0,0],"sum_hessian":[4.310024E0,1.7742369E0,2.5357869E0,1.5302835E0,1.0055035E0],"tree_param":{"num_deleted":"0","num_feature":"9","num_nodes":"5","size_leaf_vector":"1"}},{"base_weights":[-8.507923E-2,3.4970485E-2,-7.9682946E-2],"categories":[],"categories_nodes":[],"categories_segments":[],"categories_sizes":[],"default_left":[0,0,0],"id":132,"left_children":[1,-1,-1],"loss_changes":[1.5709649E-1,0E0,0E0],"parents":[2147483647,0,0],"right_children":[2,-1,-1],"split_conditions":[9E0,3.4970485E-2,-7.9682946E-2],"split_indices":[0,0,0],"split_type":[0,0,0],"sum_hessian":[2.4649057E0,1.3317171E0,1.1331885E0],"tree_param":{"num_deleted":"0","num_feature":"9","num_nodes":"3","size_leaf_vector":"1"}},{"base_weights":[1.18029505E-1,2.1604863E-1,-1.3642133E-2,7.4122497E-3,9.340328E-2],"categories":[],"categories_nodes":[],"categories_segments":[],"categories_sizes":[],"default_left":[0,0,0,0,0],"id":133,"left_children":[1,3,-1,-1,-1],"loss_changes":[1.1045244E-1,6.7056105E-2,0E0,0E0,0E0],"parents":[2147483647,0,0,1,1],"right_children":[2,4,-1,-1,-1],"split_conditions":[1.4E1,9E0,-1.3642133E-2,7.4122497E-3,9.340328E-2],"split_indices":[0,0,0,0,0],"split_type":[0,0,0,0,0],"sum_hessian":[5.278865E0,3.0994148E0,2.17945E0,1.449095E0,1.6503199E0],"tree_param":{"num_deleted":"0","num_feature":"9","num_nodes":"5","size_leaf_vector":"1"}},{"base_weights":[-9.103459E-2,-8.9952566E-2,8.533117E-2,6.9016125E-3,3.0791672E-2],"categories":[],"categories_nodes":[],"categories_segments":[],"categories_sizes":[],"default_left":[0,0,0,0,0],"id":134,"left_children":[1,-1,3,-1,-1],"loss_changes":[2.0867613E-1,0E0,1.3858825E-3,0E0,0E0],"parents":[2147483647,0,0,2,2],"right_children":[2,-1,4,-1,-1],"split_conditions":[1.4E1,-8.9952566E-2,3.85E-1,6.9016125E-3,3.0791672E-2],"split_indices":[0,0,5,0,0],"split_type":[0,0,0,0,0],"sum_hessian":[3.971705E0,1.4980193E0,2.4736857E0,1.0438691E0,1.4298166E0],"tree_param":{"num_deleted":"0","num_feature":"9","num_nodes":"5","size_leaf_vector":"1"}},{"base_weights":[-7.567862E-2,1.0666065E-2,-4.6152525E-2],"categories":[],"categories_nodes":[],"categories_segments":[],"categories_sizes":[],"default_left":[0,0,0],"id":135,"left_children":[1,-1,-1],"loss_changes":[3.382814E-2,0E0,0E0],"parents":[2147483647,0,0],"right_children":[2,-1,-1],"split_conditions":[6E0,1.0666065E-2,-4.6152525E-2],"split_indices":[1,0,0],"split_type":[0,0,0],"sum_hessian":[2.2617536E0,1.1583991E0,1.1033545E0],"tree_param":{"num_deleted":"0","num_feature":"9","num_nodes":"3","size_leaf_vector":"1"}},{"base_weights":[1.090554E-1,1.991953E-1,-3.393814E-2,7.165903E-3,8.757229E-2,-1.2571892E-2,-2.5572514E-3],"categories":[],"categories_nodes":[],"categories_segments":[],"categories_sizes":[],"default_left":[0,0,0,0,0,0,0],"id":136,"left_children":[1,3,5,-1,-1,-1,-1],"loss_changes":[8.376126E-2,5.494818E-2,2.8354884E-4,0E0,0E0,0E0,0E0],"parents":[2147483647,0,0,1,1,2,2],"right_children":[2,4,6,-1,-1,-1,-1],"split_conditions":[1.4E1,9E0,5.62E-1,7.165903E-3,8.757229E-2,-1.2571892E-2,-2.5572514E-3],"split_indices":[0,0,5,0,0,0,0],"split_type":[0,0,0,0,0,0,0],"sum_hessian":[4.9739647E0,2.8097346E0,2.16423E0,1.406962E0,1.4027724E0,1.1535913E0,1.0106387E0],"tree_param":{"num_deleted":"0","num_feature":"9","num_nodes":"7","size_leaf_vector":"1"}},{"base_weights":[-8.4912114E-2,-8.45024E-2,7.1249634E-2,2.7617853E-2,3.3026622E-3],"categories":[],"categories_nodes":[],"categories_segments":[],"categories_sizes":[],"default_left":[0,0,0,0,0],"id":137,"left_children":[1,-1,3,-1,-1],"loss_changes":[1.6508365E-1,0E0,3.2855365E-3,0E0,0E0],"parents":[2147483647,0,0,2,2],"right_children":[2,-1,4,-1,-1],"split_conditions":[1.4E1,-8.45024E-2,1E1,2.7617853E-2,3.3026622E-3],"split_indices":[0,0,1,0,0],"split_type":[0,0,0,0,0],"sum_hessian":[3.719479E0,1.2901562E0,2.429323E0,1.4130119E0,1.016311E0],"tree_param":{"num_deleted":"0","num_feature":"9","num_nodes":"5","size_leaf_vector":"1"}},{"base_weights":[-6.371221E-2,1.0515142E-2,-4.0763553E-2],"categories":[],"categories_nodes":[],"categories_segments":[],"categories_sizes":[],"default_left":[0,0,0],"id":138,"left_children":[1,-1,-1],"loss_changes":[2.7242133E-2,0E0,0E0],"parents":[2147483647,0,0],"right_children":[2,-1,-1],"split_conditions":[6E0,1.0515142E-2,-4.0763553E-2],"split_indices":[1,0,0],"split_type":[0,0,0],"sum_hessian":[2.153987E0,1.126556E0,1.0274308E0],"tree_param":{"num_deleted":"0","num_feature":"9","num_nodes":"3","size_leaf_vector":"1"}},{"base_weights":[9.457507E-2,1.7483665E-1,-2.565046E-2,4.068431E-3,8.1067786E-2,-1.1464659E-2,1.6111266E-4],"categories":[],"categories_nodes":[],"categories_segments":[],"categories_sizes":[],"default_left":[0,0,0,0,0,0,0],"id":139,"left_children":[1,3,5,-1,-1,-1,-1],"loss_changes":[5.9505355E-2,5.0905205E-2,1.0585799E-3,0E0,0E0,0E0,0E0],"parents":[2147483647,0,0,1,1,2,2],"right_children":[2,4,6,-1,-1,-1,-1],"split_conditions":[1.4E1,9E0,2.14E-1,4.068431E-3,8.1067786E-2,-1.1464659E-2,1.6111266E-4],"split_indices":[0,0,7,0,0,0,0],"split_type":[0,0,0,0,0,0,0],"sum_hessian":[4.701928E0,2.5471995E0,2.1547287E0,1.3711529E0,1.1760465E0,1.145703E0,1.0090258E0],"tree_param":{"num_deleted":"0","num_feature":"9","num_nodes":"7","size_leaf_vector":"1"}},{"base_weights":[-7.844136E-2,-7.960843E-2,6.1628077E-2,1.4423822E-3,2.5239779E-2],"categories":[],"categories_nodes":[],"categories_segments":[],"categories_sizes":[],"default_left":[0,0,0,0,0],"id":140,"left_children":[1,-1,3,-1,-1],"loss_changes":[1.3507882E-1,0E0,3.9478503E-3,0E0,0E0],"parents":[2147483647,0,0,2,2],"right_children":[2,-1,4,-1,-1],"split_conditions":[1.4E1,-7.960843E-2,3.85E-1,1.4423822E-3,2.5239779E-2],"split_indices":[0,0,5,0,0],"split_type":[0,0,0,0,0],"sum_hessian":[3.5346444E0,1.1309342E0,2.4037101E0,1.0262481E0,1.377462E0],"tree_param":{"num_deleted":"0","num_feature":"9","num_nodes":"5","size_leaf_vector":"1"}},{"base_weights":[-5.428228E-2,-3.403334E-2,9.468482E-3],"categories":[],"categories_nodes":[],"categories_segments":[],"categories_sizes":[],"default_left":[0,0,0],"id":141,"left_children":[1,-1,-1],"loss_changes":[1.9153256E-2,0E0,0E0],"parents":[2147483647,0,0],"right_children":[2,-1,-1],"split_conditions":[7E-1,-3.403334E-2,9.468482E-3],"split_indices":[5,0,0],"split_type":[0,0,0],"sum_hessian":[2.0662837E0,1.0329034E0,1.0333803E0],"tree_param":{"num_deleted":"0","num_feature":"9","num_nodes":"3","size_leaf_vector":"1"}},{"base_weights":[8.901007E-2,1.6175877E-1,-1.8491518E-2,2.2484413E-3,7.7631064E-2,-8.814552E-3,7.174713E-4],"categories":[],"categories_nodes":[],"categories_segments":[],"categories_sizes":[],"default_left":[0,0,0,0,0,0,0],"id":142,"left_children":[1,3,5,-1,-1,-1,-1],"loss_changes":[4.6554595E-2,4.9313203E-2,7.856507E-4,0E0,0E0,0E0,0E0],"parents":[2147483647,0,0,1,1,2,2],"right_children":[2,4,6,-1,-1,-1,-1],"split_conditions":[1.4E1,9E0,2.14E-1,2.2484413E-3,7.7631064E-2,-8.814552E-3,7.174713E-4],"split_indices":[0,0,7,0,0,0,0],"split_type":[0,0,0,0,0,0,0],"sum_hessian":[4.5703425E0,2.42475E0,2.1455925E0,1.3520411E0,1.0727088E0,1.1427115E0,1.0028809E0],"tree_param":{"num_deleted":"0","num_feature":"9","num_nodes":"7",